svm_type c_svc
kernel_type polynomial
degree 5
gamma 0.0714286
coef0 1
nr_class 4
total_sv 5928
rho -0.214091 -3.07053 -11.5592 -0.641398 -8.87255 -9.67047
label 1 2 3 4
probA -1.93882 -1.99109 -1.7189 -1.75136 -1.35563 -1.97748
probB -0.163695 0.201306 -0.168671 0.0784055 -0.426811 -0.109128
nr_sv 1219 2227 1648 834
SV
0 1 0 1:-0.776819 2:-0.328357 3:-1 4:-1 5:-0.211848 6:-0.55171 7:-0.309847 8:-0.341897 9:-1 10:-1 11:-0.332473 12:-0.0778545 13:-1 14:-1 
0.6897309730952231 1 0 1:-0.630903 2:-0.433091 3:-1 4:-1 5:-0.278907 6:-1 7:-0.262358 8:-0.546491 9:-1 10:-1 11:-0.238265 12:0.167108 13:-0.698849 14:-1 
0 1 0 1:-0.553736 2:-0.355674 3:-1 4:-1 5:-0.310194 6:-0.648083 7:-0.31294 8:-0.685821 9:-1 10:-0.513202 11:-0.199214 12:-0.278469 13:-0.664549 14:-1 
0 1 0 1:-0.558632 2:-0.333433 3:-0.713995 4:-1 5:-0.337006 6:-1 7:-0.325339 8:-0.596702 9:-1 10:-0.30333 11:-0.146732 12:0.043039 13:-0.659142 14:-1 
1 1 0 1:-0.715328 2:-0.421211 3:-1 4:-1 5:-0.0556328 6:-1 7:-0.0228558 8:-0.515923 9:-0.435112 10:-0.208442 11:-0.0909402 12:-0.478795 13:-0.426408 14:-1 
1 1 0 1:-0.697887 2:-0.490845 3:-0.741301 4:-1 5:-0.104242 6:-1 7:-0.0599135 8:-0.647531 9:-0.289065 10:-0.229225 11:-0.345402 12:-0.131289 13:-0.35464 14:-1 
1 0 0 1:-0.442836 2:-0.491493 3:-0.434963 4:-1 5:-0.0998803 6:-1 7:-0.0827313 8:-0.356703 9:-0.185265 10:-0.358137 11:-0.354218 12:-0.163076 13:-0.3903 14:-1 
0.5292229450496959 0 0 1:-0.738307 2:-1 3:-0.536528 4:-1 5:-0.141885 6:-1 7:-0.139507 8:-0.451538 9:-0.319584 10:-0.421916 11:-0.17099 12:-0.058887 13:-0.31858 14:-0.189885 
1 1 0 1:-1 2:-0.75445 3:-0.384915 4:-1 5:-0.43769 6:-1 7:-0.316426 8:-0.465354 9:-0.0675707 10:-0.225551 11:-0.304887 12:-0.558077 13:-0.627097 14:-1 
0.645989421167011 0 0 1:-1 2:-1 3:-0.456038 4:-1 5:-1 6:-1 7:-0.488265 8:-0.56428 9:-0.115055 10:-0.336793 11:-0.185476 12:-0.483415 13:-1 14:-1 
1 0 0 1:-1 2:-1 3:-0.445277 4:-1 5:-1 6:-1 7:-0.47946 8:-0.57058 9:-0.0374658 10:-0.32279 11:-0.281239 12:-0.4046 13:-1 14:-1 
1 0 0 1:-1 2:-1 3:-0.324137 4:-1 5:-1 6:-1 7:-0.535554 8:-0.616353 9:0.0127255 10:-0.433142 11:-0.305172 12:-0.515384 13:-1 14:-1 
1 0 0 1:-1 2:-1 3:-0.465901 4:-1 5:-1 6:-1 7:-0.559684 8:-0.611528 9:-0.0968226 10:-0.304699 11:-0.287721 12:-0.488193 13:-1 14:-1 
1 0 0 1:-1 2:-1 3:-0.462962 4:-1 5:-1 6:-1 7:-0.515337 8:-0.655219 9:-0.18105 10:-0.35412 11:-0.370063 12:-1 13:-1 14:-1 
1 0 0 1:-1 2:-1 3:-0.563957 4:-1 5:-1 6:-1 7:-0.537235 8:-0.668101 9:-0.155333 10:-0.481368 11:-0.259432 12:-0.596819 13:-1 14:-1 
1 1 0 1:-1 2:-1 3:-0.576127 4:-1 5:-1 6:-1 7:-0.526043 8:-0.716381 9:-0.0820514 10:-0.567705 11:-0.374981 12:-0.48356 13:-1 14:-1 
1 0 0 1:-1 2:-1 3:-0.687578 4:-1 5:-1 6:-1 7:-0.535152 8:-0.699546 9:-0.255956 10:-0.570239 11:-0.370713 12:-1 13:-1 14:-1 
1 1 0 1:-1 2:-1 3:-0.652545 4:-1 5:-1 6:-1 7:-0.560154 8:-0.725232 9:-0.233293 10:-0.38022 11:-0.332467 12:-0.584091 13:-1 14:-1 
1 1 0 1:-1 2:-1 3:-0.522285 4:-1 5:-1 6:-1 7:-0.612009 8:-1 9:-0.385151 10:-0.342711 11:-0.3691 12:-0.498574 13:-1 14:-1 
1 1 0 1:-1 2:-1 3:-0.523128 4:-1 5:-1 6:-1 7:-0.614607 8:-1 9:-0.282168 10:-0.378405 11:-0.359992 12:-1 13:-1 14:-1 
1 1 0 1:-1 2:-1 3:-0.649353 4:-1 5:-1 6:-1 7:-0.654125 8:-0.692282 9:-0.208602 10:-0.345605 11:-0.47504 12:-0.582198 13:-1 14:-1 
1 1 0 1:-1 2:-1 3:-0.533233 4:-1 5:-1 6:-1 7:-0.529196 8:-0.731613 9:-0.0826818 10:-0.352543 11:-0.217103 12:-0.397884 13:-1 14:-1 
1 0 0 1:-1 2:-1 3:-0.45942 4:-1 5:-0.608854 6:-1 7:-0.367831 8:-0.686259 9:0.10063 10:-0.506523 11:-0.163103 12:-0.197223 13:-1 14:-1 
1 0 0 1:-1 2:-1 3:-0.534896 4:-1 5:-1 6:-1 7:-0.416763 8:-0.704557 9:-0.169857 10:-0.458584 11:-0.167244 12:-0.280989 13:-1 14:-1 
1 1 0 1:-1 2:-1 3:-0.528757 4:-1 5:-0.624904 6:-1 7:-0.370132 8:-1 9:-0.198046 10:-0.127215 11:-0.100866 12:-0.487926 13:-1 14:-1 
1 1 0 1:-1 2:-1 3:-0.445542 4:-1 5:-0.599609 6:-1 7:-0.37083 8:-0.685619 9:-0.256803 10:-0.0500372 11:-0.0683452 12:-1 13:-0.593684 14:-1 
1 0 0 1:-1 2:-1 3:-0.50884 4:-1 5:-0.624809 6:-1 7:-0.368948 8:-0.709085 9:-0.168621 10:0.0974956 11:0.0940617 12:-0.615937 13:-0.73046 14:-1 
1 1 0 1:-1 2:-0.723838 3:-0.36399 4:-1 5:-0.651106 6:-1 7:-0.466184 8:-0.761632 9:-0.316506 10:0.12943 11:0.167273 12:-1 13:-0.64581 14:-1 
1 0.7220842403964438 0 1:-1 2:-1 3:-0.574254 4:-1 5:-1 6:-1 7:-0.476916 8:-1 9:-0.37891 10:0.0202161 11:0.174852 12:-1 13:-0.717022 14:-1 
1 0 0 1:-1 2:-1 3:-0.527996 4:-0.581405 5:-1 6:-1 7:-0.525071 8:-1 9:-0.647906 10:0.0242069 11:0.317728 12:-1 13:-0.527632 14:-1 
0 0.3480499369645987 0 1:-1 2:-1 3:-0.748187 4:-0.36414 5:-1 6:-0.667604 7:-1 8:-1 9:-1 10:-0.21513 11:0.457501 12:-1 13:-0.756583 14:-1 
0.4110488599239153 1 0 1:-1 2:-1 3:-0.732276 4:-0.225516 5:-1 6:-0.697363 7:-1 8:-1 9:-1 10:-0.525753 11:0.439233 12:-1 13:-0.731049 14:-1 
0.001054663855664888 1 0 1:-1 2:-1 3:-1 4:-0.180163 5:-1 6:-0.544221 7:-1 8:-1 9:-1 10:-1 11:0.404833 12:-1 13:-1 14:-1 
0 1 0 1:-1 2:-1 3:-1 4:-0.148703 5:-1 6:-1 7:-1 8:-1 9:-1 10:-1 11:0.559847 12:-1 13:-1 14:-1 
1 0 0 1:-1 2:-1 3:-1 4:-0.658024 5:-1 6:-0.28068 7:-1 8:-1 9:-1 10:-1 11:0.467188 12:-1 13:-1 14:-1 
1 1 0 1:-1 2:-1 3:-1 4:-0.459799 5:-1 6:-0.59987 7:-1 8:-1 9:-1 10:-1 11:0.363793 12:-1 13:-1 14:-1 
0 0.09052656573655372 0 1:-1 2:-1 3:-1 4:-0.28981 5:-1 6:-0.557304 7:-1 8:-1 9:-0.593921 10:-1 11:0.469928 12:-1 13:-1 14:-1 
1 1 0 1:-1 2:-1 3:-1 4:-0.482386 5:-1 6:-0.518858 7:-1 8:-1 9:-0.676291 10:-1 11:0.481537 12:-0.63244 13:-1 14:-1 
1 0 0 1:-1 2:-1 3:-1 4:-0.398346 5:-1 6:-0.384182 7:-0.644109 8:-1 9:-0.608031 10:-1 11:0.481342 12:-1 13:-1 14:-1 
1 0 0 1:-1 2:-1 3:-1 4:-0.420107 5:-1 6:-0.496987 7:-0.633947 8:-1 9:-0.579432 10:-1 11:0.532143 12:-1 13:-1 14:-1 
1 0 0 1:-1 2:-1 3:-1 4:-0.476331 5:-1 6:-0.0930654 7:-0.626536 8:-1 9:-1 10:-1 11:0.521899 12:-1 13:-1 14:-1 
0.795644433076207 0 0 1:-1 2:-1 3:-1 4:-0.438959 5:-1 6:-0.281916 7:-0.647492 8:-1 9:-1 10:-1 11:0.450471 12:-1 13:-1 14:-1 
1 0.5844154616194579 0 1:-1 2:-0.385422 3:-0.541551 4:-1 5:-0.149817 6:-0.287314 7:-0.100159 8:-0.363292 9:-0.149325 10:-1 11:-1 12:-0.57104 13:-1 14:-1 
1 1 0 1:-1 2:-0.299765 3:-0.604168 4:-1 5:-0.152314 6:-0.175507 7:-0.131473 8:-0.356499 9:-0.0854754 10:-1 11:-1 12:-0.456302 13:-0.70703 14:-1 
1 0 0 1:-1 2:-0.386528 3:-0.671374 4:-1 5:-0.142463 6:-0.386775 7:-0.125849 8:-0.284037 9:-0.183621 10:-1 11:-1 12:-0.614063 13:-1 14:-1 
1 0 0 1:-1 2:-0.479437 3:-0.633049 4:-1 5:-0.206839 6:-0.311691 7:-0.199813 8:-0.363093 9:-0.226599 10:-1 11:-1 12:-0.398951 13:-1 14:-1 
1 1 0 1:-1 2:-0.51451 3:-0.63115 4:-1 5:-0.20157 6:-0.317275 7:-0.21125 8:-0.394787 9:0.0614891 10:-1 11:-1 12:-0.231099 13:-1 14:-1 
0 1 0 1:-1 2:-1 3:-0.710131 4:-1 5:-0.330839 6:-0.325628 7:-0.3876 8:-0.314139 9:-0.421479 10:-1 11:-1 12:-1 13:-0.197928 14:-1 
0 1 0 1:-1 2:-0.772313 3:-0.759322 4:-1 5:-0.413318 6:-0.43128 7:-0.435575 8:-0.319031 9:-0.317143 10:-1 11:-1 12:-0.568515 13:-0.268316 14:-1 
1 1 0 1:-1 2:-0.727809 3:-0.768472 4:-1 5:-0.39573 6:-0.108613 7:-0.398775 8:-0.31093 9:-0.392873 10:-1 11:-1 12:-1 13:-0.232632 14:-1 
1 1 0 1:-1 2:-0.619966 3:-0.591191 4:-1 5:-0.381998 6:-0.0490099 7:-0.358817 8:-0.312659 9:-0.259844 10:-1 11:-1 12:-1 13:-0.314188 14:-1 
0 1 0 1:-1 2:-0.726896 3:-0.717546 4:-1 5:-0.392026 6:-0.230738 7:-0.419427 8:-0.319108 9:-0.463498 10:-1 11:-1 12:-1 13:-0.19086 14:-1 
0 1 0 1:-1 2:-0.49967 3:-0.672181 4:-1 5:-0.440952 6:-0.563683 7:-0.461167 8:-0.357916 9:-0.451094 10:-1 11:-1 12:-0.389152 13:-0.511452 14:-1 
0 1 0 1:-1 2:-0.592106 3:-0.767167 4:-1 5:-0.391086 6:-0.499104 7:-0.365079 8:-0.324714 9:-0.306358 10:-1 11:-1 12:-0.344183 13:-0.548024 14:-1 
1 0.1353015660177436 0 1:-1 2:-0.552559 3:-0.726418 4:-1 5:-0.553835 6:-0.244917 7:-0.568769 8:-0.497243 9:-0.468152 10:-1 11:-1 12:-0.621711 13:-1 14:-1 
1 1 0 1:-1 2:-0.553857 3:-1 4:-1 5:-1 6:-0.437958 7:-0.576456 8:-0.548714 9:-0.429867 10:-1 11:-1 12:-0.512106 13:-1 14:-1 
1 1 0 1:-1 2:-0.572256 3:-1 4:-1 5:-1 6:-1 7:-0.664063 8:-0.540169 9:-0.488574 10:-0.567187 11:-1 12:-0.331198 13:-1 14:-1 
1 0 0 1:-1 2:-1 3:-1 4:-1 5:-1 6:-0.69753 7:-1 8:-0.630318 9:-1 10:-1 11:-1 12:-0.440647 13:-0.609362 14:-1 
1 0 0 1:-1 2:-0.691831 3:-1 4:-1 5:-1 6:-0.552789 7:-1 8:-0.667279 9:-0.538016 10:-1 11:-1 12:-0.244092 13:-1 14:-1 
1 1 0 1:-1 2:-0.706764 3:-1 4:-1 5:-1 6:-0.523279 7:-1 8:-0.755719 9:-0.516605 10:-1 11:-1 12:-0.190796 13:-1 14:-1 
1 1 0 1:-1 2:-0.66902 3:-1 4:-1 5:-1 6:-0.617366 7:-1 8:-0.762145 9:-0.625859 10:-1 11:-1 12:-0.423792 13:-0.792733 14:-1 
1 1 1 1:-1 2:-0.65778 3:-1 4:-1 5:-1 6:-1 7:-1 8:-1 9:-1 10:-1 11:-1 12:-0.43203 13:-0.604591 14:-1 
1 1 1 1:-1 2:-0.696629 3:-1 4:-1 5:-1 6:-0.605253 7:-1 8:-1 9:-0.573199 10:-1 11:-1 12:-0.596154 13:-0.791452 14:-1 
1 1 0 1:-1 2:-0.698649 3:-1 4:-1 5:-1 6:-0.304978 7:-1 8:-1 9:-0.584437 10:-1 11:-1 12:-0.444745 13:-1 14:-1 
1 1 0 1:-1 2:-0.690279 3:-0.709003 4:-1 5:-1 6:-0.5221 7:-1 8:-0.697517 9:-0.581406 10:-1 11:-1 12:-1 13:-1 14:-1 
1 1 0 1:-1 2:-0.581891 3:-1 4:-1 5:-1 6:-1 7:-1 8:-0.746839 9:-0.507929 10:-1 11:-1 12:-1 13:-0.699853 14:-1 
1 1 0 1:-1 2:-0.599394 3:-1 4:-1 5:-1 6:-1 7:-0.674663 8:-0.629511 9:-0.458827 10:-1 11:-1 12:-0.621003 13:-0.729418 14:-1 
1 0.2512565745413 0 1:-1 2:-0.553966 3:-1 4:-1 5:-0.651592 6:-0.483788 7:-0.554132 8:-0.586789 9:-0.42001 10:-0.531852 11:-1 12:-1 13:-1 14:-1 
1 0 0 1:-1 2:-0.642043 3:-1 4:-1 5:-1 6:-0.550194 7:-1 8:-0.662462 9:-0.413371 10:-0.525087 11:-1 12:-1 13:-1 14:-1 
1 0.2958472970036906 0 1:-1 2:-0.695533 3:-0.712448 4:-1 5:-1 6:-0.436896 7:-1 8:-0.649865 9:-0.520877 10:-0.562066 11:-1 12:-1 13:-1 14:-1 
1 1 0 1:-1 2:-0.720059 3:-0.716829 4:-1 5:-1 6:-0.616713 7:-0.674421 8:-0.742518 9:-0.66037 10:-1 11:-1 12:-1 13:-0.775977 14:-1 
1 1 0 1:-1 2:-0.707197 3:-1 4:-1 5:-1 6:-1 7:-0.65784 8:-1 9:-0.579535 10:-1 11:-1 12:-1 13:-1 14:-1 
1 1 0 1:-1 2:-0.64342 3:-0.658007 4:-0.672563 5:-1 6:-0.641779 7:-1 8:-1 9:-0.615216 10:-0.484301 11:-1 12:-1 13:-1 14:-1 
1 1 0 1:-1 2:-0.691934 3:-0.453244 4:-0.686115 5:-1 6:-0.468892 7:-1 8:-1 9:-0.637816 10:-0.380473 11:-1 12:-1 13:-1 14:-1 
1 1 0 1:-1 2:-0.695035 3:-0.554695 4:-0.54897 5:-1 6:-1 7:-1 8:-1 9:-1 10:-0.308486 11:-1 12:-1 13:-1 14:-1 
1 1 0 1:-1 2:-0.748952 3:-0.585678 4:-1 5:-1 6:-1 7:-0.674905 8:-0.627628 9:-1 10:-0.205283 11:-1 12:-1 13:-0.699912 14:-1 
1 1 0 1:-1 2:-1 3:-0.538679 4:-1 5:-1 6:-1 7:-0.664788 8:-0.725106 9:-1 10:-1 11:-1 12:-1 13:-0.739521 14:-1 
1 1 0 1:-1 2:-1 3:-0.658933 4:-0.52064 5:-0.586141 6:-1 7:-0.584606 8:-0.68856 9:-1 10:-1 11:-1 12:-1 13:-0.6041 14:-1 
1 1 0 1:-1 2:-1 3:-0.48848 4:-0.452652 5:-1 6:-1 7:-0.636285 8:-0.73055 9:-1 10:-1 11:-1 12:-1 13:-0.48054 14:-1 
1 1 0 1:-1 2:-1 3:-0.760755 4:-0.434625 5:-0.593085 6:-1 7:-0.546343 8:-0.711724 9:-1 10:-1 11:-1 12:-1 13:-0.45538 14:-1 
1 1 0 1:-1 2:-1 3:-0.663506 4:-0.533513 5:-0.654271 6:-1 7:-0.625089 8:-0.720279 9:-1 10:-1 11:-1 12:-1 13:-0.491908 14:-1 
1 1 1 1:-1 2:-0.716329 3:-1 4:-0.536626 5:-1 6:-1 7:-1 8:-1 9:-1 10:-0.547573 11:-1 12:-1 13:-0.472212 14:-1 
1 1 0 1:-1 2:-0.667421 3:-1 4:-0.519193 5:-1 6:-1 7:-1 8:-1 9:-1 10:-0.406732 11:-1 12:-1 13:-0.534996 14:-1 
1 1 1 1:-1 2:-1 3:-1 4:-0.503463 5:-1 6:-1 7:-1 8:-1 9:-1 10:-0.385668 11:-1 12:-1 13:-0.739425 14:-1 
1 1 1 1:-1 2:-1 3:-1 4:-0.493055 5:-1 6:-1 7:-1 8:-1 9:-1 10:-1 11:-1 12:-1 13:-0.605313 14:-1 
1 1 1 1:-0.710244 2:-0.66936 3:-1 4:-0.485404 5:-1 6:-1 7:-1 8:-1 9:-1 10:-1 11:-1 12:-1 13:-0.33908 14:-1 
1 1 1 1:-0.697719 2:-0.729965 3:-1 4:-0.214648 5:-1 6:-1 7:-1 8:-0.761942 9:-1 10:-1 11:-1 12:-1 13:-0.42222 14:-1 
1 1 1 1:-0.699516 2:-1 3:-1 4:-0.215763 5:-1 6:-1 7:-1 8:-0.733911 9:-1 10:-1 11:-1 12:-1 13:-0.666494 14:-1 
1 1 0 1:-0.629676 2:-0.691377 3:-1 4:-0.289446 5:-1 6:-1 7:-1 8:-0.57252 9:-1 10:-1 11:-1 12:-1 13:-0.488108 14:-1 
1 1 0 1:-0.610422 2:-0.590184 3:-1 4:-0.328564 5:-1 6:-1 7:-1 8:-0.436365 9:-1 10:-1 11:-1 12:-1 13:-0.679828 14:-1 
1 1 0 1:-0.681152 2:-0.557629 3:-1 4:-0.270439 5:-0.630413 6:-1 7:-0.650471 8:-0.387466 9:-1 10:-1 11:-1 12:-1 13:-0.555496 14:-1 
0 1 0 1:-0.725342 2:-0.510449 3:-1 4:-0.506357 5:-0.367862 6:-1 7:-0.397546 8:-0.30903 9:-0.595702 10:-1 11:-1 12:-1 13:-0.4935 14:-1 
1 1 0 1:-0.711752 2:-0.542784 3:-1 4:-0.53722 5:-0.472264 6:-0.637221 7:-0.332424 8:-0.296233 9:-0.37946 10:-1 11:-1 12:-1 13:-1 14:-1 
0 1 0 1:-0.6666 2:-0.567997 3:-1 4:-0.659425 5:-0.475367 6:-1 7:-0.409777 8:-0.300794 9:-0.300789 10:-1 11:-1 12:-0.626145 13:-1 14:-1 
0 0.6151901142025589 0 1:-0.787082 2:-0.761304 3:-1 4:-0.485931 5:-1 6:-1 7:-0.652317 8:-0.420228 9:-0.344695 10:-1 11:-1 12:-0.31785 13:-1 14:-1 
1 1 0 1:-0.758978 2:-0.6839 3:-1 4:-0.686201 5:-1 6:-1 7:-0.617398 8:-0.484269 9:-0.131532 10:-1 11:-1 12:-0.143969 13:-1 14:-1 
1 1 0 1:-0.756648 2:-0.703471 3:-1 4:-1 5:-1 6:-1 7:-0.675126 8:-0.537834 9:-0.22702 10:-1 11:-1 12:-0.354222 13:-1 14:-1 
1 0 0 1:-0.786119 2:-1 3:-1 4:-0.636094 5:-1 6:-1 7:-0.600547 8:-0.483106 9:-0.334565 10:-1 11:-1 12:-0.468791 13:-1 14:-1 
1 1 0 1:-0.741678 2:-1 3:-1 4:-0.590649 5:-1 6:-1 7:-0.552904 8:-0.602249 9:-0.236556 10:-1 11:-1 12:-0.315007 13:-1 14:-1 
1 0 0 1:-0.699625 2:-1 3:-1 4:-0.682209 5:-1 6:-1 7:-0.599388 8:-0.522372 9:-0.278849 10:-1 11:-1 12:-1 13:-1 14:-1 
1 0 0 1:-0.753604 2:-1 3:-1 4:-1 5:-1 6:-1 7:-0.638016 8:-0.517453 9:-0.210753 10:-1 11:-1 12:-1 13:-1 14:-1 
1 0 0 1:-0.662136 2:-1 3:-1 4:-0.431454 5:-1 6:-1 7:-0.546419 8:-0.401145 9:-0.263293 10:-1 11:-1 12:-0.581544 13:-1 14:-1 
1 1 0 1:-0.667511 2:-0.581919 3:-1 4:-0.543317 5:-0.604472 6:-0.468538 7:-0.492165 8:-0.453891 9:-0.144029 10:-1 11:-1 12:-1 13:-1 14:-1 
0 1 0 1:-0.717354 2:-0.668563 3:-1 4:-0.610366 5:-0.638753 6:-0.632336 7:-0.569544 8:-0.421581 9:-0.2804 10:-1 11:-1 12:-1 13:-1 14:-1 
1 1 0 1:-0.716423 2:-0.69232 3:-1 4:-0.643274 5:-1 6:-0.663231 7:-0.620372 8:-0.53706 9:-0.153083 10:-1 11:-1 12:-0.486391 13:-1 14:-1 
1 1 0 1:-0.702805 2:-0.547736 3:-1 4:-0.686981 5:-1 6:-1 7:-0.673035 8:-0.580852 9:-0.354584 10:-1 11:-1 12:-1 13:-1 14:-1 
1 1 0 1:-0.788851 2:-0.588493 3:-1 4:-1 5:-0.653539 6:-0.561185 7:-0.586586 8:-0.507361 9:-0.245215 10:-1 11:-1 12:-0.577036 13:-1 14:-1 
1 1 0 1:-0.772173 2:-0.71377 3:-1 4:-0.536951 5:-0.613641 6:-0.529725 7:-0.513991 8:-0.579328 9:-0.430049 10:-1 11:-1 12:-1 13:-1 14:-1 
1 1 0 1:-0.782163 2:-0.660227 3:-1 4:-0.613217 5:-0.638354 6:-0.282923 7:-0.524838 8:-0.6237 9:-0.287637 10:-1 11:-1 12:-1 13:-1 14:-1 
1 1 0 1:-0.75794 2:-0.603542 3:-1 4:-0.580867 5:-1 6:-0.133864 7:-0.571417 8:-0.695967 9:-0.19718 10:-1 11:-1 12:-1 13:-1 14:-1 
1 1 0 1:-1 2:-0.733703 3:-1 4:-0.69064 5:-1 6:-0.518647 7:-0.60943 8:-0.629425 9:-0.20854 10:-1 11:-1 12:-0.569431 13:-1 14:-1 
0 1 0 1:-1 2:-0.738544 3:-1 4:-1 5:-0.605175 6:-0.643991 7:-0.551353 8:-0.527824 9:-0.260833 10:-1 11:-1 12:-0.27929 13:-0.786142 14:-1 
1 0 0 1:-1 2:-0.751486 3:-1 4:-1 5:-0.641971 6:-0.61133 7:-0.553188 8:-0.532752 9:-0.374182 10:-1 11:-1 12:-0.391171 13:-1 14:-1 
1 0 0 1:-1 2:-1 3:-1 4:-0.687798 5:-1 6:-0.619969 7:-0.560702 8:-0.556764 9:-0.552974 10:-1 11:-1 12:-0.417282 13:-1 14:-1 
1 0 0 1:-1 2:-1 3:-1 4:-0.569524 5:-1 6:-0.642387 7:-0.646166 8:-0.57751 9:-0.624203 10:-1 11:-1 12:-0.472942 13:-1 14:-1 
1 0 0 1:-1 2:-0.764567 3:-1 4:-0.674843 5:-0.638236 6:-1 7:-0.554959 8:-0.612495 9:-1 10:-1 11:-1 12:-0.357783 13:-1 14:-1 
1 1 0 1:-1 2:-0.743785 3:-1 4:-0.674373 5:-1 6:-1 7:-0.561534 8:-0.573756 9:-0.605654 10:-1 11:-1 12:-0.520261 13:-1 14:-1 
0 1 0 1:-1 2:-0.646715 3:-1 4:-1 5:-0.608496 6:-1 7:-0.641261 8:-0.566288 9:-0.420274 10:-1 11:-1 12:-0.525433 13:-1 14:-1 
1 1 0 1:-1 2:-0.656084 3:-1 4:-0.49629 5:-0.651568 6:-0.418005 7:-0.598651 8:-0.606766 9:-0.454157 10:-1 11:-1 12:-1 13:-1 14:-1 
1 1 0 1:-1 2:-0.725952 3:-1 4:-0.67432 5:-1 6:-0.565482 7:-0.56691 8:-0.685337 9:-0.462607 10:-1 11:-1 12:-0.60308 13:-1 14:-1 
1 1 0 1:-1 2:-0.701721 3:-1 4:-0.641734 5:-0.65423 6:-0.607094 7:-0.552019 8:-0.571149 9:-0.421353 10:-1 11:-1 12:-1 13:-1 14:-1 
1 0 0 1:-1 2:-0.553089 3:-1 4:-1 5:-0.482595 6:-0.34521 7:-0.412195 8:-0.435813 9:-0.309052 10:-1 11:-1 12:-1 13:-1 14:-1 
1 0 0 1:-1 2:-0.551352 3:-1 4:-1 5:-0.524743 6:-0.476449 7:-0.429036 8:-0.470191 9:-0.323465 10:-1 11:-1 12:-1 13:-1 14:-1 
1 0 0 1:-1 2:-0.557636 3:-1 4:-1 5:-0.519476 6:-0.348413 7:-0.482957 8:-0.466752 9:-0.233546 10:-1 11:-1 12:-1 13:-1 14:-1 
1 1 0 1:-1 2:-0.40876 3:-1 4:-1 5:-0.558695 6:-0.321762 7:-0.491824 8:-0.555702 9:-0.179844 10:-1 11:-1 12:-1 13:-1 14:-1 
1 1 0 1:-1 2:-0.424289 3:-1 4:-1 5:-0.541879 6:-0.443686 7:-0.418375 8:-0.414916 9:-0.25731 10:-1 11:-1 12:-1 13:-1 14:-1 
1 0 0 1:-1 2:-0.599424 3:-1 4:-1 5:-0.479526 6:-0.584734 7:-0.347297 8:-0.430496 9:-0.22006 10:-1 11:-1 12:-1 13:-1 14:-1 
1 0 0 1:-1 2:-0.568091 3:-1 4:-1 5:-0.544267 6:-0.415139 7:-0.425902 8:-0.52682 9:-0.425025 10:-1 11:-1 12:-1 13:-1 14:-1 
1 0 0 1:-1 2:-0.565988 3:-1 4:-1 5:-0.579159 6:-0.449301 7:-0.494422 8:-0.506357 9:-0.537379 10:-1 11:-1 12:-1 13:-1 14:-1 
1 0 0 1:-1 2:-0.547202 3:-1 4:-1 5:-0.578644 6:-0.597962 7:-0.438943 8:-0.461136 9:-0.43511 10:-1 11:-1 12:-1 13:-1 14:-1 
0.212600016797583 0 0 1:-1 2:-1 3:-1 4:-1 5:0.0642112 6:-0.354196 7:0.112735 8:-0.259356 9:-0.0628983 10:-1 11:-1 12:-0.52568 13:-0.599772 14:-1 
1 0 0 1:-1 2:-0.693809 3:-0.716876 4:-1 5:0.0219655 6:-0.187412 7:-0.0206733 8:-0.222073 9:-0.11597 10:-1 11:-1 12:-0.325779 13:-0.20498 14:-1 
1 1 0 1:-1 2:-1 3:-1 4:-1 5:-0.018464 6:-0.293773 7:0.0220587 8:-0.453452 9:-0.22888 10:-1 11:-1 12:-0.354248 13:-0.3969 14:-1 
1 1 0 1:-1 2:-0.720799 3:-1 4:-1 5:0.0132289 6:-0.382101 7:0.0692 8:-0.329425 9:-0.247693 10:-1 11:-1 12:-0.175617 13:-0.536556 14:-1 
1 0 0 1:-1 2:-1 3:-0.761843 4:-1 5:-0.0165584 6:-0.44931 7:0.00911575 8:-0.400485 9:-0.438307 10:-1 11:-1 12:-0.326828 13:-0.649867 14:-1 
1 0 0 1:-1 2:-1 3:-1 4:-1 5:0.219009 6:0.0204839 7:0.240849 8:-0.113499 9:-0.0909821 10:-1 11:-1 12:-0.60007 13:-0.52268 14:-1 
0 0.4343104040990144 0 1:-1 2:-1 3:-1 4:-1 5:0.207885 6:-0.275602 7:0.250452 8:-0.116739 9:-0.0877683 10:-1 11:-1 12:-1 13:-0.271288 14:-1 
1 0 0 1:-1 2:-1 3:-1 4:-0.585602 5:0.210898 6:-0.205813 7:0.281418 8:-0.0584229 9:-0.117354 10:-1 11:-1 12:-0.460716 13:-0.337596 14:-1 
1 0 0 1:-1 2:-0.748495 3:-1 4:-1 5:0.256611 6:-0.307222 7:0.359095 8:-0.0426073 9:-0.0449812 10:-1 11:-1 12:-0.525399 13:-0.42898 14:-1 
1 0 0 1:-1 2:-1 3:-1 4:-1 5:0.273644 6:-0.147223 7:0.370665 8:-0.11235 9:0.123602 10:-1 11:-1 12:-0.57821 13:-0.657312 14:-1 
1 0 0 1:-1 2:-1 3:-1 4:-0.675769 5:0.260766 6:-0.275065 7:0.338396 8:-0.0790082 9:-0.109931 10:-1 11:-1 12:-0.579226 13:-0.332768 14:-1 
1 0 0 1:-1 2:-1 3:-1 4:-0.592104 5:0.25249 6:0.154363 7:0.318659 8:0.0203884 9:-0.0804136 10:-1 11:-1 12:-0.430024 13:-0.513 14:-1 
1 0 0 1:-1 2:-1 3:-1 4:-1 5:0.227016 6:-0.0409104 7:0.325902 8:-0.0609073 9:-0.169851 10:-1 11:-1 12:-1 13:-0.53696 14:-1 
1 0 0 1:-1 2:-1 3:-1 4:-0.503439 5:0.124467 6:-0.120657 7:0.213483 8:-0.0744603 9:-0.134993 10:-1 11:-1 12:-0.485162 13:-0.485184 14:-1 
1 0 0 1:-1 2:-0.661885 3:-1 4:-0.67663 5:0.198632 6:-0.254283 7:0.342299 8:-0.137207 9:-0.0312174 10:-1 11:-1 12:-0.376315 13:-0.590884 14:-1 
1 0 0 1:-1 2:-0.629729 3:-1 4:-1 5:0.177293 6:-0.249645 7:0.286669 8:-0.157982 9:-0.297217 10:-1 11:-1 12:-0.509395 13:-0.522364 14:-1 
1 0 0 1:-1 2:-1 3:-0.69265 4:-0.669558 5:0.168384 6:-0.045711 7:0.224883 8:-0.0983444 9:-0.19867 10:-1 11:-1 12:-0.370692 13:-0.500424 14:-1 
1 0 0 1:-1 2:-1 3:-1 4:-1 5:0.129379 6:-0.0911416 7:0.183334 8:-0.126356 9:-0.162366 10:-1 11:-1 12:-0.65153 13:-0.512816 14:-1 
1 0 0 1:-1 2:-0.661906 3:-1 4:-0.690713 5:0.089183 6:-0.286886 7:0.158548 8:-0.120916 9:-0.408938 10:-1 11:-1 12:-0.651736 13:-0.407496 14:-1 
1 1 0 1:-1 2:-0.620686 3:-0.722023 4:-1 5:0.0374164 6:-0.382668 7:0.116493 8:-0.18098 9:-0.374479 10:-1 11:-1 12:-0.464889 13:-0.285044 14:-1 
1 1 0 1:-0.57356 2:-0.628906 3:-0.765662 4:-0.644716 5:-1 6:-0.178951 7:-0.550812 8:-0.529363 9:0.120376 10:-1 11:-0.474704 12:-0.494421 13:-1 14:-1 
0 1 0 1:-1 2:-1 3:-1 4:-1 5:0.014873 6:-1 7:0.0493238 8:0.0451097 9:-0.403307 10:-1 11:-1 12:-1 13:0.416208 14:-1 
1 1 0 1:-1 2:-1 3:-0.75034 4:-1 5:-0.00193308 6:-1 7:0.0484381 8:0.00119692 9:-0.121736 10:-1 11:-1 12:-0.55931 13:0.720564 14:-1 
1 1 0 1:-1 2:-1 3:-0.754717 4:-1 5:0.0794832 6:-1 7:0.0658725 8:-0.0022694 9:-0.0545608 10:-1 11:-1 12:-0.541105 13:0.545652 14:-1 
1 0 0 1:-1 2:-0.724218 3:-1 4:-1 5:0.180911 6:-1 7:0.268108 8:0.0340093 9:-0.419573 10:-1 11:-1 12:-0.202118 13:0.985096 14:-1 
0 1 0 1:-1 2:-0.687489 3:-1 4:-1 5:0.145614 6:-1 7:0.168524 8:-0.0271672 9:-0.297748 10:-1 11:-1 12:-1 13:0.443792 14:-1 
1 0 0 1:-1 2:-0.715261 3:-0.735929 4:-1 5:0.118551 6:-1 7:0.172864 8:0.0953125 9:-0.226791 10:-1 11:-1 12:-0.5578 13:0.469664 14:-1 
1 1 0 1:-1 2:-0.584941 3:-1 4:-1 5:0.103898 6:-1 7:0.146333 8:0.0530605 9:-0.292532 10:-1 11:-1 12:-1 13:0.663976 14:-1 
0.9173935771066093 1 0 1:-0.73186 2:-1 3:-1 4:-0.276458 5:-0.188781 6:-0.652771 7:0.0166816 8:-0.210117 9:0.410881 10:-1 11:-1 12:-0.636189 13:-1 14:-1 
1 1 0 1:-0.771978 2:-1 3:-1 4:-0.497657 5:-0.284334 6:-1 7:-0.0791571 8:-0.300201 9:0.443681 10:-1 11:-0.509264 12:-1 13:-0.758921 14:-1 
0 1 0 1:-0.65364 2:-1 3:-1 4:-0.508569 5:-0.296181 6:-0.619484 7:-0.0874442 8:-0.19904 9:0.316617 10:-1 11:-1 12:-1 13:-1 14:-1 
1 0 0 1:-0.786181 2:-1 3:-0.764516 4:-0.441635 5:-0.190783 6:-0.577179 7:0.0507344 8:-0.160059 9:0.358193 10:-1 11:-0.491838 12:-0.608152 13:-1 14:-1 
0 1 0 1:-1 2:-1 3:-0.719526 4:-1 5:-0.338353 6:-1 7:-0.215893 8:-0.219037 9:-0.0891465 10:-1 11:-1 12:-1 13:-0.344844 14:-1 
0 1 0 1:-1 2:-1 3:-0.619116 4:-1 5:-0.272901 6:-1 7:-0.259973 8:-0.145873 9:-0.248806 10:-1 11:-1 12:-1 13:-0.06984 14:-1 
1 1 0 1:-1 2:-1 3:-0.581405 4:-1 5:-0.178263 6:-1 7:-0.104841 8:-0.175409 9:-0.463989 10:-1 11:-1 12:-1 13:0.346544 14:-1 
1 0 0 1:-1 2:-1 3:-0.691454 4:-1 5:-0.190762 6:-1 7:-0.115222 8:-0.160032 9:-0.343756 10:-1 11:-1 12:-0.365083 13:-0.01506 14:-1 
0 1 0 1:-1 2:-1 3:-1 4:-1 5:-0.250268 6:-1 7:-0.173895 8:-0.198488 9:-0.376129 10:-1 11:-1 12:-0.60889 13:0.126784 14:-1 
0 1 0 1:-1 2:-1 3:-0.738125 4:-1 5:-0.263181 6:-1 7:-0.165425 8:-0.199062 9:-0.456293 10:-1 11:-1 12:-0.555557 13:-0.037844 14:-1 
0 1 0 1:-1 2:-0.742054 3:-1 4:-1 5:-0.333044 6:-1 7:-0.255836 8:-0.192302 9:-0.354151 10:-1 11:-1 12:-0.613928 13:0.052228 14:-1 
1 1 0 1:-1 2:-0.679328 3:-0.722317 4:-1 5:-0.499713 6:-1 7:-0.497857 8:-0.514231 9:-1 10:-1 11:-1 12:-0.591362 13:0.151588 14:-1 
1 1 0 1:-1 2:-0.750999 3:-0.620501 4:-0.57275 5:-0.516362 6:-1 7:-0.550032 8:-0.678021 9:-1 10:-1 11:-1 12:-1 13:0.041356 14:-1 
1 1 0 1:-0.772049 2:-0.652586 3:-0.704126 4:-1 5:-0.565812 6:-1 7:-0.53855 8:-0.607089 9:-1 10:-1 11:-1 12:-1 13:-0.079836 14:-1 
1 1 0 1:-1 2:-1 3:-1 4:-1 5:-0.637105 6:-1 7:-1 8:-0.602365 9:-1 10:-1 11:-1 12:-1 13:0.0871 14:-1 
1 1 0 1:-1 2:-1 3:-1 4:-1 5:-0.559996 6:-1 7:-0.672987 8:-0.588041 9:-1 10:-1 11:-1 12:-0.607831 13:0.10712 14:-1 
1 0 0 1:-1 2:-1 3:-1 4:-1 5:-1 6:-1 7:-1 8:-0.619108 9:-1 10:-1 11:-1 12:-1 13:-0.18728 14:-1 
1 1 0 1:-1 2:-1 3:-1 4:-1 5:-0.598615 6:-1 7:-0.678061 8:-0.521756 9:-1 10:-1 11:-1 12:-1 13:0.2882 14:-1 
1 1 0 1:-1 2:-1 3:-1 4:-1 5:-1 6:-1 7:-1 8:-0.515692 9:-1 10:-1 11:-1 12:-1 13:0.345404 14:-1 
0 1 0 1:-1 2:-1 3:-1 4:-1 5:-0.608752 6:-1 7:-0.675928 8:-0.487165 9:-1 10:-1 11:-1 12:-1 13:0.070712 14:-1 
1 1 0 1:-1 2:-1 3:-1 4:-1 5:-1 6:-1 7:-1 8:-0.619392 9:-1 10:-1 11:-1 12:-1 13:0.04404 14:-1 
1 1 0 1:-1 2:-1 3:-1 4:-1 5:-1 6:-1 7:-1 8:-0.538142 9:-1 10:-1 11:-1 12:-1 13:0.040068 14:-1 
1 1 0 1:-1 2:-1 3:-1 4:-1 5:-1 6:-1 7:-1 8:-0.553184 9:-1 10:-1 11:-1 12:-1 13:0.070864 14:-1 
1 1 0 1:-1 2:-0.752362 3:-1 4:-1 5:-1 6:-1 7:-1 8:-0.600727 9:-1 10:-1 11:-1 12:-0.601748 13:0.146176 14:-1 
1 1 0 1:-1 2:-1 3:-1 4:-1 5:-1 6:-1 7:-1 8:-0.565169 9:-1 10:-1 11:-1 12:-0.566292 13:-0.135548 14:-1 
1 1 0 1:-1 2:-0.651561 3:-1 4:-1 5:-1 6:-1 7:-1 8:-0.485283 9:-1 10:-1 11:-1 12:-1 13:-0.190516 14:-1 
0 0.2340717850337957 0 1:-1 2:-0.699466 3:-1 4:-1 5:-1 6:-1 7:-1 8:-0.49603 9:-1 10:-1 11:-1 12:-1 13:-0.255876 14:-1 
1 1 0 1:-1 2:-0.769348 3:-1 4:-1 5:-1 6:-1 7:-1 8:-0.544504 9:-1 10:-1 11:-1 12:-1 13:-0.18332 14:-1 
1 0 0 1:-1 2:-1 3:-1 4:-0.638472 5:-1 6:-1 7:-1 8:-0.559559 9:-1 10:-1 11:-1 12:-1 13:-0.250864 14:-1 
1 0 0 1:-1 2:-1 3:-1 4:-1 5:-1 6:-1 7:-1 8:-0.614669 9:-1 10:-1 11:-1 12:-1 13:-0.275204 14:-1 
1 0 0 1:-1 2:-1 3:-1 4:-0.56535 5:-1 6:-1 7:-1 8:-0.56455 9:-1 10:-1 11:-1 12:-1 13:-0.599384 14:-1 
0.4230078356788026 0 0 1:-1 2:-1 3:-1 4:-0.562065 5:-1 6:-1 7:-1 8:-0.549626 9:-1 10:-1 11:-1 12:-0.498985 13:-0.28072 14:-1 
1 0 1 1:-1 2:-1 3:-1 4:-1 5:-1 6:-1 7:-1 8:-0.649545 9:-1 10:-1 11:-1 12:-0.477751 13:-0.565916 14:-1 
1 1 1 1:-0.68021 2:-0.608967 3:-1 4:-1 5:-1 6:-1 7:-1 8:-1 9:-0.584432 10:-1 11:-1 12:-1 13:-0.38712 14:-1 
1 1 1 1:-0.746924 2:-0.659714 3:-0.578552 4:-0.686165 5:-1 6:-1 7:-0.67063 8:-1 9:-1 10:-1 11:-1 12:-1 13:-0.416504 14:-1 
1 1 1 1:-1 2:-1 3:-0.626125 4:-0.639694 5:-1 6:-1 7:-1 8:-1 9:-1 10:-1 11:-1 12:-0.436283 13:-0.64754 14:-1 
1 1 0 1:-1 2:-1 3:-0.697172 4:-0.602426 5:-1 6:-1 7:-1 8:-0.675034 9:-1 10:-1 11:-1 12:-0.597762 13:-0.317112 14:-1 
1 0 0 1:-1 2:-0.755233 3:-1 4:-1 5:-1 6:-1 7:-1 8:-0.650697 9:-1 10:-1 11:-1 12:-1 13:-0.701511 14:-1 
1 1 1 1:-1 2:-0.547907 3:-1 4:-1 5:-1 6:-1 7:-1 8:-0.676514 9:-1 10:-1 11:-1 12:-0.562277 13:-1 14:-1 
0 1 0 1:-1 2:-0.710148 3:-1 4:-1 5:-0.648964 6:-1 7:-0.659355 8:-0.542178 9:-0.656378 10:-1 11:-1 12:-0.451608 13:-0.676855 14:-1 
1 1 0 1:-1 2:-0.645029 3:-1 4:-1 5:-1 6:-1 7:-0.661926 8:-0.670117 9:-1 10:-1 11:-1 12:-0.584065 13:-1 14:-1 
0 0 0.6221562637439025 1:-1 2:-1 3:-1 4:-1 5:-1 6:-1 7:-1 8:-0.594996 9:-0.601247 10:-1 11:-1 12:-0.292249 13:-1 14:-1 
1 0 0 1:-1 2:-1 3:-1 4:-1 5:-0.60388 6:-1 7:-0.598254 8:-0.564096 9:-1 10:-1 11:-1 12:-0.171627 13:-1 14:-1 
1 0 0 1:-1 2:-1 3:-1 4:-1 5:-0.617564 6:-1 7:-0.628037 8:-0.624231 9:-1 10:-1 11:-1 12:-0.340752 13:-0.722692 14:-1 
1 1 0 1:-1 2:-1 3:-0.546325 4:-1 5:-0.537665 6:-1 7:-0.504724 8:-0.631311 9:-0.533448 10:-1 11:-1 12:-1 13:-0.604415 14:-1 
1 1 0 1:-1 2:-0.765516 3:-0.626168 4:-1 5:-0.509072 6:-1 7:-0.504224 8:-0.619572 9:-0.655341 10:-1 11:-1 12:-1 13:-0.576496 14:-1 
1 1 0 1:-1 2:-1 3:-0.553032 4:-1 5:-0.49961 6:-1 7:-0.473949 8:-0.544011 9:-0.547612 10:-1 11:-1 12:-1 13:-0.26494 14:-1 
1 1 0 1:-1 2:-1 3:-0.699501 4:-1 5:-0.467301 6:-1 7:-0.461064 8:-0.610179 9:-0.361555 10:-1 11:-1 12:-1 13:-0.123824 14:-1 
1 1 0 1:-0.723186 2:-0.669033 3:-0.726152 4:-1 5:-0.566212 6:-1 7:-0.548784 8:-0.521706 9:-0.579462 10:-1 11:-1 12:-0.294714 13:-0.63067 14:-1 
1 1 0 1:-1 2:-1 3:-0.691238 4:-1 5:-0.545476 6:-1 7:-0.532336 8:-0.525965 9:-1 10:-1 11:-1 12:-0.565053 13:-0.425044 14:-1 
1 1 0 1:-1 2:-1 3:-0.653373 4:-1 5:-0.565273 6:-1 7:-0.563941 8:-0.547016 9:-1 10:-1 11:-1 12:-0.54669 13:-0.176988 14:-1 
0 1 0 1:-1 2:-0.762357 3:-1 4:-1 5:-0.589178 6:-1 7:-0.633148 8:-0.449013 9:-0.465537 10:-1 11:-1 12:-0.477068 13:-0.082464 14:-1 
0 1 0 1:-1 2:-0.680421 3:-1 4:-0.6318 5:-0.61542 6:-1 7:-0.618419 8:-0.481617 9:-1 10:-1 11:-1 12:-1 13:-0.288436 14:-1 
0 0.210601085853849 0 1:-1 2:-0.583306 3:-1 4:-0.535696 5:-0.592406 6:-1 7:-0.600276 8:-0.491442 9:-1 10:-1 11:-1 12:-0.396245 13:-0.545508 14:-1 
0 1 0 1:-1 2:-0.653483 3:-1 4:-0.599182 5:-0.627424 6:-1 7:-0.612897 8:-0.607217 9:-1 10:-1 11:-1 12:-0.231809 13:-0.497176 14:-1 
1 1 0 1:-1 2:-0.665863 3:-0.745815 4:-0.682661 5:-0.650361 6:-1 7:-0.60886 8:-0.585231 9:-1 10:-1 11:-1 12:-0.47111 13:-1 14:-1 
1 0 0 1:-1 2:-1 3:-1 4:-1 5:-1 6:-1 7:-0.634769 8:-0.562885 9:-1 10:-1 11:-1 12:-0.529048 13:-1 14:-1 
1 0 0 1:-1 2:-1 3:-1 4:-1 5:-1 6:-1 7:-0.64044 8:-0.558634 9:-1 10:-1 11:-1 12:-0.49031 13:-0.565156 14:-1 
0.5737032296859341 1 0 1:-1 2:-0.72824 3:-1 4:-0.544978 5:-1 6:-1 7:-0.601718 8:-0.665841 9:-1 10:-0.54134 11:-1 12:-0.279172 13:-0.756635 14:-1 
1 1 1 1:-1 2:-0.752188 3:-1 4:-1 5:-1 6:-1 7:-1 8:-0.668819 9:-1 10:-1 11:-1 12:-0.432275 13:-0.507196 14:-1 
1 1 0 1:-1 2:-0.772823 3:-1 4:-0.670385 5:-1 6:-1 7:-0.67694 8:-0.587759 9:-1 10:-1 11:-1 12:-1 13:-0.50592 14:-1 
1 0 0 1:-1 2:-1 3:-0.756777 4:-0.553538 5:-1 6:-1 7:-1 8:-0.499524 9:-1 10:-1 11:-1 12:-0.488712 13:-0.464244 14:-1 
1 1 0 1:-1 2:-1 3:-0.695857 4:-1 5:-0.65508 6:-1 7:-0.587792 8:-0.581903 9:-0.54888 10:-1 11:-1 12:-0.323867 13:-0.597376 14:-1 
1 1 0 1:-1 2:-1 3:-1 4:-1 5:-1 6:-1 7:-0.64363 8:-0.576886 9:-1 10:-1 11:-1 12:-0.202285 13:-0.563832 14:-1 
1 1 0 1:-1 2:-1 3:-1 4:-0.650672 5:-1 6:-1 7:-0.660464 8:-0.632007 9:-1 10:-1 11:-1 12:-0.115316 13:-0.48078 14:-1 
1 0 0 1:-1 2:-1 3:-1 4:-1 5:-1 6:-1 7:-1 8:-0.562449 9:-1 10:-1 11:-1 12:-0.39535 13:-0.378028 14:-1 
1 1 0 1:-1 2:-1 3:-1 4:-0.57093 5:-1 6:-1 7:-1 8:-0.633932 9:-1 10:-1 11:-1 12:-0.430044 13:-0.494324 14:-1 
1 0 0 1:-1 2:-0.732967 3:-1 4:-0.616591 5:-1 6:-1 7:-1 8:-0.573991 9:-1 10:-1 11:-1 12:-0.120148 13:-0.643717 14:-1 
1 1 0 1:-1 2:-0.661423 3:-1 4:-1 5:-1 6:-1 7:-0.673299 8:-0.631414 9:-1 10:-1 11:-1 12:-0.554253 13:-0.359744 14:-1 
1 0 0 1:-1 2:-1 3:-1 4:-0.6895 5:-1 6:-1 7:-1 8:-0.60568 9:-1 10:-1 11:-1 12:-0.443768 13:-0.467332 14:-1 
1 0 1 1:-1 2:-1 3:-1 4:-1 5:-1 6:-1 7:-1 8:-0.662606 9:-1 10:-1 11:-1 12:-1 13:-0.570292 14:-1 
1 0 0 1:-1 2:-1 3:-1 4:-1 5:-1 6:-1 7:-0.679555 8:-0.560413 9:-1 10:-1 11:-1 12:-0.545564 13:-0.614896 14:-1 
1 0 0.4612459896426372 1:-1 2:-1 3:-1 4:-0.691635 5:-1 6:-1 7:-1 8:-0.640582 9:-1 10:-1 11:-1 12:-0.549123 13:-0.517204 14:-1 
0 1 0 1:-1 2:-0.726568 3:-1 4:-1 5:-0.593694 6:-1 7:-0.597843 8:-0.477513 9:-1 10:-0.559193 11:-1 12:-1 13:-0.294848 14:-1 
0 1 0 1:-1 2:-1 3:-1 4:-1 5:-0.517689 6:-1 7:-0.510902 8:-0.460168 9:-0.682682 10:-0.55692 11:-1 12:-1 13:-0.265636 14:-1 
0 1 0 1:-1 2:-0.652583 3:-1 4:-1 5:-0.434846 6:-1 7:-0.419151 8:-0.349259 9:-1 10:-1 11:-1 12:-1 13:0.06906 14:-1 
0.3662733489692386 1 0 1:-1 2:-1 3:-1 4:-1 5:-0.39034 6:-1 7:-0.359253 8:-0.411336 9:-0.601179 10:-1 11:-1 12:-1 13:0.228804 14:-1 
0 1 0 1:-1 2:-1 3:-1 4:-1 5:-0.213485 6:-1 7:-0.187382 8:-0.300604 9:-0.656192 10:-1 11:-1 12:-1 13:0.270704 14:-1 
0.1495930433780185 1 0 1:-1 2:-0.566278 3:-1 4:-1 5:-0.228764 6:-1 7:-0.175413 8:-0.351888 9:-0.621908 10:-1 11:-1 12:-0.594188 13:0.241084 14:-1 
1 1 0 1:-1 2:-0.673436 3:-0.75412 4:-1 5:-0.164016 6:-1 7:-0.121567 8:-0.276824 9:-0.630244 10:-1 11:-1 12:-0.639505 13:0.318964 14:-1 
0 1 0 1:-1 2:-1 3:-1 4:-1 5:-0.104421 6:-1 7:-0.0807576 8:-0.288282 9:-0.622992 10:-1 11:-1 12:-0.610426 13:0.311608 14:-1 
0 0.1726903680838702 0 1:-1 2:-1 3:-1 4:-1 5:0.0326697 6:-1 7:0.0157074 8:0.0453676 9:-0.656917 10:-1 11:-1 12:-1 13:0.5049 14:-1 
0.02076463807704367 0 0 1:-1 2:-1 3:-1 4:-1 5:0.106189 6:-1 7:0.0864573 8:0.0834565 9:-0.559455 10:-1 11:-1 12:-0.48578 13:0.657844 14:-1 
0 1 0 1:-1 2:-1 3:-1 4:-1 5:0.129977 6:-1 7:0.126406 8:0.165607 9:-1 10:-1 11:-1 12:-1 13:0.720216 14:-1 
1 1 0 1:-1 2:-1 3:-1 4:-1 5:0.205092 6:-1 7:0.225427 8:0.192161 9:-0.634392 10:-1 11:-1 12:-1 13:0.844468 14:-1 
0 1 0 1:-1 2:-1 3:-1 4:-1 5:0.144238 6:-1 7:0.12702 8:0.224517 9:-0.590145 10:-1 11:-1 12:-1 13:0.730988 14:-1 
0 1 0 1:-1 2:-1 3:-1 4:-1 5:0.194436 6:-1 7:0.168822 8:0.22644 9:-0.551995 10:-1 11:-1 12:-1 13:0.759584 14:-1 
0 1 0 1:-1 2:-1 3:-0.565511 4:-1 5:0.0551787 6:-0.494339 7:-0.136559 8:-0.0866151 9:-1 10:-1 11:-1 12:-1 13:0.546128 14:-0.183511 
0 1 0 1:-1 2:-1 3:-0.563658 4:-1 5:0.0212019 6:0.223061 7:-0.105328 8:-0.14194 9:-1 10:-1 11:-1 12:-1 13:0.200116 14:-0.105232 
0 1 0 1:-1 2:-1 3:-1 4:-1 5:-0.0699967 6:-1 7:-0.0942067 8:-0.00717927 9:-0.678161 10:-1 11:-1 12:-1 13:0.691308 14:-1 
0 1 0 1:-1 2:-1 3:-1 4:-1 5:-0.0784857 6:-1 7:-0.116556 8:0.0164877 9:-0.651253 10:-1 11:-1 12:-1 13:0.704868 14:-1 
1 1 0 1:-1 2:-0.597989 3:-1 4:-0.558547 5:-0.440475 6:-0.519004 7:-0.139735 8:-0.294825 9:-0.358218 10:-1 11:-1 12:-0.608372 13:-0.694789 14:-1 
1 0 0 1:-1 2:-1 3:-1 4:-1 5:-0.494916 6:-1 7:-0.348758 8:-0.503601 9:-0.447581 10:-1 11:-1 12:-0.34196 13:-1 14:-1 
0 1 0 1:-1 2:-0.761954 3:-0.716538 4:-1 5:-0.464853 6:-1 7:-0.38902 8:-0.459801 9:-1 10:-1 11:-1 12:-1 13:-0.353412 14:-1 
1 1 0 1:-1 2:-0.759726 3:-0.491684 4:-1 5:-0.387341 6:-1 7:-0.29481 8:-0.559531 9:-0.505546 10:-1 11:-1 12:-0.399151 13:0.156176 14:-1 
1 1 0 1:-1 2:-0.764593 3:-0.761245 4:-1 5:-0.381928 6:-1 7:-0.324106 8:-0.433311 9:-0.495986 10:-1 11:-1 12:-0.371088 13:0.078124 14:-1 
1 1 0 1:-1 2:-1 3:-0.70908 4:-1 5:-0.390733 6:-1 7:-0.334341 8:-0.440329 9:-0.64627 10:-1 11:-1 12:-1 13:0.267524 14:-1 
0 1 0 1:-1 2:-0.727247 3:-1 4:-1 5:-0.437859 6:-1 7:-0.40004 8:-0.457435 9:-1 10:-1 11:-1 12:-0.503853 13:-0.094404 14:-1 
0 1 0 1:-1 2:-0.766741 3:-1 4:-1 5:-0.430271 6:-1 7:-0.366129 8:-0.332873 9:-1 10:-1 11:-1 12:-0.529779 13:0.084412 14:-1 
0 1 0 1:-1 2:-1 3:-1 4:-1 5:-0.459341 6:-1 7:-0.431715 8:-0.379298 9:-1 10:-1 11:-1 12:-1 13:0.334112 14:-1 
0 1 0 1:-1 2:-0.63014 3:-1 4:-1 5:-0.402319 6:-1 7:-0.426858 8:-0.304636 9:-1 10:-1 11:-1 12:-0.529994 13:0.277268 14:-1 
0 1 0 1:-1 2:-1 3:-1 4:-1 5:-0.431043 6:-1 7:-0.438359 8:-0.276231 9:-1 10:-1 11:-1 12:-1 13:0.342236 14:-1 
0 1 0 1:-1 2:-1 3:-1 4:-1 5:-0.413715 6:-1 7:-0.379943 8:-0.230644 9:-1 10:-1 11:-1 12:-1 13:0.3382 14:-1 
0 1 0 1:-1 2:-0.742971 3:-1 4:-1 5:-0.454221 6:-1 7:-0.406735 8:-0.310885 9:-1 10:-1 11:-1 12:-1 13:0.216136 14:-1 
0 1 0 1:-1 2:-1 3:-1 4:-1 5:-0.462879 6:-1 7:-0.428477 8:-0.335272 9:-1 10:-1 11:-1 12:-0.63601 13:0.266472 14:-1 
0 0.7941185340864605 0 1:-1 2:-1 3:-1 4:-1 5:-0.463435 6:-1 7:-0.424095 8:-0.333805 9:-1 10:-1 11:-1 12:-1 13:0.147804 14:-1 
0 1 0 1:-1 2:-0.729725 3:-1 4:-1 5:-0.457935 6:-1 7:-0.4577 8:-0.387588 9:-1 10:-1 11:-1 12:-1 13:0.396404 14:-1 
0 1 0 1:-1 2:-1 3:-1 4:-1 5:-0.493057 6:-1 7:-0.471842 8:-0.38881 9:-1 10:-1 11:-1 12:-1 13:0.329872 14:-1 
0 1 0 1:-1 2:-1 3:-1 4:-1 5:-0.462467 6:-1 7:-0.483012 8:-0.334122 9:-1 10:-1 11:-1 12:-1 13:0.216848 14:-1 
0 1 0 1:-1 2:-1 3:-1 4:-1 5:-0.440202 6:-1 7:-0.434341 8:-0.295708 9:-1 10:-1 11:-1 12:-1 13:0.33266 14:-1 
0 1 0 1:-1 2:-0.707761 3:-1 4:-1 5:-0.467207 6:-1 7:-0.491624 8:-0.337973 9:-1 10:-1 11:-1 12:-1 13:0.241456 14:-1 
0 1 0 1:-1 2:-1 3:-1 4:-1 5:-0.490563 6:-1 7:-0.487695 8:-0.339955 9:-1 10:-1 11:-1 12:-1 13:0.183092 14:-1 
0 1 0 1:-1 2:-1 3:-1 4:-1 5:-0.439696 6:-1 7:-0.400106 8:-0.29735 9:-1 10:-1 11:-1 12:-1 13:0.42906 14:-1 
0 1 0 1:-1 2:-0.648279 3:-1 4:-1 5:-0.475795 6:-1 7:-0.493418 8:-0.335959 9:-1 10:-1 11:-1 12:-1 13:0.371944 14:-1 
1 1 0 1:-1 2:-0.603134 3:-1 4:-1 5:-0.520021 6:-1 7:-0.487814 8:-0.394751 9:-1 10:-1 11:-1 12:-1 13:0.510572 14:-1 
0 1 0 1:-1 2:-1 3:-1 4:-1 5:-0.457008 6:-1 7:-0.451083 8:-0.344829 9:-1 10:-1 11:-1 12:-1 13:0.397924 14:-1 
1 1 0 1:-1 2:-0.742043 3:-0.661207 4:-1 5:-0.432265 6:-1 7:-0.410306 8:-0.424867 9:-1 10:-1 11:-1 12:-1 13:0.47504 14:-1 
1 1 0 1:-0.766292 2:-1 3:-0.513306 4:-1 5:-0.00723701 6:-0.511358 7:0.0729513 8:-0.20971 9:-0.559912 10:-1 11:-1 12:-0.586862 13:0.17236 14:-1 
1 1 0 1:-0.774424 2:-1 3:-0.367978 4:-1 5:-0.0280468 6:-0.497375 7:0.0494566 8:-0.28215 9:-0.318984 10:-1 11:-1 12:-1 13:0.061112 14:-1 
1 1 0 1:-1 2:-1 3:-0.331047 4:-1 5:-0.0557497 6:-0.560527 7:0.0540493 8:-0.207968 9:-0.486257 10:-1 11:-1 12:-1 13:-0.005352 14:-1 
1 1 0 1:-1 2:-1 3:-0.321184 4:-1 5:-0.0727759 6:-1 7:0.0209264 8:-0.14519 9:-0.471313 10:-1 11:-1 12:-0.586802 13:-0.122016 14:-1 
1 1 0 1:-1 2:-1 3:-0.423788 4:-1 5:0.0312388 6:-1 7:0.132922 8:-0.0606222 9:-0.464301 10:-1 11:-1 12:-1 13:0.021352 14:-1 
1 1 0 1:-1 2:-1 3:-0.523826 4:-1 5:0.0483201 6:-0.51783 7:0.132656 8:-0.0179176 9:-0.476894 10:-1 11:-1 12:-1 13:0.083984 14:-1 
1 0 0 1:-1 2:-1 3:-1 4:-1 5:-0.389337 6:-1 7:-0.211067 8:-0.423102 9:-0.25909 10:-1 11:-1 12:-0.234754 13:-1 14:-1 
0 1 0 1:-0.66369 2:-1 3:-1 4:-1 5:-0.243527 6:-1 7:-0.181828 8:-0.174223 9:0.71845 10:-1 11:-1 12:-0.0743103 13:-1 14:-1 
0 1 0 1:-0.687205 2:-1 3:-1 4:-1 5:-0.241401 6:-1 7:-0.156328 8:-0.291635 9:0.825217 10:-1 11:-1 12:0.00592561 13:-0.787339 14:-1 
1 0 1 1:-1 2:-1 3:-1 4:-1 5:-1 6:-1 7:-1 8:-1 9:-1 10:-1 11:-1 12:-1 13:-1 14:-1 
1 0 1 1:-1 2:-1 3:-1 4:-1 5:-1 6:-1 7:-1 8:-1 9:-1 10:-1 11:-1 12:-1 13:-1 14:-1 
0 0.5220517202753996 0 1:-0.66334 2:-1 3:-1 4:-1 5:-0.122465 6:-1 7:0.00234694 8:-0.201465 9:1 10:-0.424704 11:-0.396319 12:0.675324 13:-0.590032 14:-1 
1 0 1 1:-1 2:-1 3:-1 4:-1 5:-1 6:-1 7:-1 8:-1 9:-1 10:-1 11:-1 12:-1 13:-1 14:-1 
1 0 1 1:-1 2:-1 3:-1 4:-1 5:-1 6:-1 7:-1 8:-1 9:-1 10:-1 11:-1 12:-1 13:-1 14:-1 
0 1 0 1:-0.68675 2:-1 3:-0.692908 4:-1 5:0.0240775 6:-1 7:0.0097357 8:-0.129125 9:0.781231 10:-0.265765 11:-1 12:0.0685588 13:-0.76016 14:-1 
0 1 0 1:-0.783598 2:-1 3:-0.648478 4:-1 5:-0.0288104 6:-1 7:-0.00953327 8:-0.159403 9:0.751071 10:-0.317859 11:-1 12:-0.0746376 13:-0.773001 14:-1 
1 0 0 1:-1 2:-1 3:-0.657293 4:-1 5:0.00696183 6:-1 7:0.0971735 8:-0.339263 9:-0.000772554 10:-1 11:-1 12:-0.306506 13:-1 14:-1 
1 0 0 1:-1 2:-1 3:-0.525904 4:-1 5:0.0355453 6:-1 7:0.0645631 8:-0.30817 9:0.0103646 10:-1 11:-1 12:-0.179739 13:-0.625518 14:-1 
1 0 0 1:-1 2:-1 3:-0.58992 4:-1 5:0.0290718 6:-1 7:0.124742 8:-0.211882 9:-0.0344374 10:-1 11:-1 12:-0.0905343 13:-0.42994 14:-1 
0.4576402386241366 0 0 1:-1 2:-1 3:-0.589218 4:-1 5:-0.00147905 6:-0.550546 7:0.0642278 8:-0.309428 9:-0.132595 10:-1 11:-1 12:-0.40705 13:-0.749298 14:-1 
0.3654737273097081 0 0 1:-1 2:-1 3:-0.597695 4:-1 5:-0.162668 6:-1 7:-0.0719835 8:-0.297762 9:0.0244807 10:-1 11:-1 12:-0.193707 13:-0.628312 14:-1 
1 0 0 1:-1 2:-1 3:-0.602442 4:-1 5:-0.166733 6:-0.694977 7:-0.0736725 8:-0.341806 9:0.0298638 10:-1 11:-1 12:-0.292075 13:-0.695587 14:-1 
1 0 0 1:-1 2:-0.745313 3:-1 4:-1 5:-0.290031 6:-1 7:-0.134857 8:-0.384999 9:-0.125908 10:-1 11:-1 12:-1 13:-1 14:-1 
1 0 0 1:-1 2:-1 3:-1 4:-1 5:-0.30068 6:-1 7:-0.142082 8:-0.410979 9:-0.154585 10:-1 11:-1 12:-0.402518 13:-1 14:-1 
1 0 0 1:-1 2:-1 3:-1 4:-1 5:-0.351642 6:-1 7:-0.188243 8:-0.444049 9:-0.0990785 10:-1 11:-1 12:-0.397413 13:-1 14:-1 
1 1 0 1:-1 2:-0.75204 3:-1 4:-1 5:-0.378905 6:-1 7:-0.214008 8:-0.408454 9:0.00247835 10:-1 11:-1 12:-0.47409 13:-1 14:-1 
1 0 0 1:-1 2:-1 3:-1 4:-1 5:-0.398726 6:-1 7:-0.219588 8:-0.446235 9:-0.0356858 10:-1 11:-1 12:-0.515675 13:-1 14:-1 
1 1 0 1:-1 2:-1 3:-1 4:-1 5:-0.423742 6:-0.652112 7:-0.240951 8:-0.552321 9:-0.149214 10:-1 11:-1 12:-0.371489 13:-1 14:-1 
1 0 0 1:-1 2:-1 3:-1 4:-1 5:-0.36307 6:-1 7:-0.219784 8:-0.469485 9:-0.0373113 10:-1 11:-1 12:-0.30542 13:-1 14:-1 
1 0 0 1:-1 2:-1 3:-0.758723 4:-1 5:-0.398914 6:-0.660604 7:-0.256146 8:-0.426256 9:-0.137731 10:-1 11:-1 12:-0.329987 13:-1 14:-1 
1 0 0 1:-1 2:-1 3:-0.701222 4:-1 5:-0.377941 6:-0.279745 7:-0.203355 8:-0.538717 9:-0.134876 10:-1 11:-1 12:-1 13:-1 14:-1 
1 0 0 1:-1 2:-1 3:-0.741482 4:-1 5:-0.355208 6:-0.476758 7:-0.200559 8:-0.511321 9:-0.161742 10:-1 11:-1 12:-1 13:-1 14:-1 
0 1 0 1:-0.731571 2:-1 3:-0.691014 4:-1 5:-0.000419636 6:-1 7:0.111059 8:-0.164087 9:-0.196939 10:-1 11:-1 12:-0.617548 13:-0.285048 14:-1 
0 1 0 1:-0.660282 2:-1 3:-1 4:-1 5:-0.070664 6:-1 7:0.0206417 8:-0.126844 9:-0.229331 10:-1 11:-1 12:-0.581437 13:-0.135236 14:-1 
1 1 0 1:-0.748843 2:-1 3:-0.725725 4:-1 5:-0.00420324 6:-1 7:0.134162 8:-0.171445 9:-0.30815 10:-1 11:-1 12:-0.630684 13:0.041712 14:-1 
0 1 0 1:-1 2:-1 3:-1 4:-1 5:0.0310118 6:-1 7:0.163071 8:-0.122401 9:-0.201902 10:-1 11:-1 12:-1 13:0.11558 14:-1 
0 1 0 1:-1 2:-1 3:-1 4:-1 5:0.0362125 6:-0.686373 7:0.162236 8:-0.151783 9:-0.364954 10:-1 11:-1 12:-1 13:0.086616 14:-1 
1 1 0 1:-1 2:-1 3:-1 4:-1 5:-0.0153546 6:-0.691322 7:0.101855 8:-0.200642 9:-0.329225 10:-1 11:-1 12:-1 13:0.33732 14:-1 
1 1 0 1:-1 2:-1 3:-0.717052 4:-1 5:-0.0140956 6:-0.343184 7:0.134459 8:-0.198221 9:-0.209597 10:-1 11:-1 12:-1 13:-0.093772 14:-1 
1 1 0 1:-1 2:-1 3:-1 4:-1 5:-0.097961 6:-0.304393 7:0.0437948 8:-0.233486 9:-0.488202 10:-1 11:-1 12:-1 13:-0.13062 14:-1 
0 1 0 1:-1 2:-1 3:-1 4:-1 5:-0.118826 6:-0.2662 7:0.0227103 8:-0.173545 9:-0.523144 10:-1 11:-1 12:-1 13:-0.160276 14:-1 
0 1 0 1:-1 2:-1 3:-0.581679 4:-1 5:-0.164642 6:-0.316606 7:-0.0374625 8:-0.21605 9:-0.535067 10:-1 11:-1 12:-1 13:-0.25848 14:-1 
0 1 0 1:-1 2:-1 3:-0.708013 4:-1 5:-0.138542 6:-0.357284 7:-0.0337871 8:-0.175993 9:-0.554414 10:-1 11:-1 12:-1 13:-0.183268 14:-1 
0 1 0 1:-1 2:-1 3:-0.73374 4:-1 5:-0.143337 6:-0.477789 7:-0.0631207 8:-0.137759 9:-0.584761 10:-1 11:-1 12:-1 13:-0.226588 14:-1 
0 1 0 1:-1 2:-1 3:-0.644048 4:-1 5:-0.21021 6:-0.503105 7:-0.0721606 8:-0.236875 9:-0.62629 10:-1 11:-1 12:-1 13:-0.140752 14:-1 
0 1 0 1:-1 2:-1 3:-0.756088 4:-1 5:-0.216697 6:-1 7:-0.0288149 8:-0.230173 9:-0.62211 10:-1 11:-1 12:-1 13:-0.148544 14:-1 
0 1 0 1:-1 2:-1 3:-0.627197 4:-1 5:-0.20221 6:-0.65111 7:-0.0645314 8:-0.198207 9:-0.537247 10:-1 11:-1 12:-1 13:-0.282844 14:-1 
1 0 0 1:-1 2:-1 3:-0.76967 4:-1 5:-1 6:-1 7:-0.558922 8:-0.527376 9:-0.460035 10:-1 11:-1 12:-1 13:-1 14:-1 
1 0 0 1:-1 2:-1 3:-1 4:-1 5:-1 6:-1 7:-0.630938 8:-0.576741 9:-0.350758 10:-1 11:-1 12:-0.585137 13:-1 14:-1 
1 0 0 1:-1 2:-1 3:-0.72347 4:-1 5:-0.597149 6:-1 7:-0.464192 8:-0.559396 9:-0.0172805 10:-1 11:-1 12:-0.412316 13:-1 14:-1 
1 0 0 1:-1 2:-1 3:-0.757656 4:-1 5:-0.52398 6:-1 7:-0.362922 8:-0.550251 9:-0.0603705 10:-1 11:-1 12:-0.601365 13:-1 14:-1 
1 0 0 1:-1 2:-1 3:-0.746485 4:-1 5:-0.465004 6:-1 7:-0.343185 8:-0.505366 9:-0.33124 10:-1 11:-1 12:-0.268957 13:-1 14:-1 
1 0 0 1:-1 2:-1 3:-0.609466 4:-1 5:-0.421581 6:-1 7:-0.362909 8:-0.45309 9:-0.327019 10:-1 11:-1 12:-0.297199 13:-0.703886 14:-1 
1 1 0 1:-0.794405 2:-1 3:-0.571364 4:-1 5:-0.471858 6:-0.645849 7:-0.386678 8:-0.424247 9:-0.389936 10:-1 11:-1 12:-0.49891 13:-0.38806 14:-1 
1 1 0 1:-0.782951 2:-1 3:-0.397467 4:-1 5:-0.454459 6:-0.572633 7:-0.422127 8:-0.394489 9:-0.46433 10:-1 11:-1 12:-1 13:-0.39332 14:-1 
0.4828955038624756 1 0 1:-0.746768 2:-0.769701 3:-0.358088 4:-1 5:-0.379793 6:-1 7:-0.321069 8:-0.373256 9:-0.514996 10:-1 11:-1 12:-1 13:-0.502944 14:-1 
1 1 0 1:-0.739821 2:-1 3:-0.36497 4:-1 5:-0.339482 6:-0.616304 7:-0.249061 8:-0.469322 9:-0.470042 10:-1 11:-1 12:-0.510816 13:-0.486708 14:-1 
1 1 0 1:-0.677362 2:-0.755631 3:-0.195235 4:-1 5:-0.309203 6:-0.535919 7:-0.208245 8:-0.462946 9:-0.327563 10:-1 11:-1 12:-0.467599 13:-0.391728 14:-1 
1 1 0 1:-0.777317 2:-1 3:-0.128314 4:-1 5:-0.383966 6:-1 7:-0.285808 8:-0.516502 9:-0.242118 10:-1 11:-1 12:-0.514027 13:-0.371376 14:-1 
1 1 0 1:-0.773332 2:-0.697401 3:-0.130292 4:-1 5:-0.431447 6:-0.558455 7:-0.330552 8:-0.647442 9:-0.204962 10:-0.534137 11:-1 12:-0.545133 13:-0.273248 14:-1 
1 1 0 1:-1 2:-1 3:-0.137744 4:-1 5:-0.429385 6:-1 7:-0.372486 8:-0.595664 9:-0.208021 10:-1 11:-1 12:-1 13:-0.376796 14:-1 
1 1 0 1:-1 2:-0.753728 3:-0.269139 4:-1 5:-0.48828 6:-1 7:-0.430852 8:-0.585859 9:-0.170815 10:-1 11:-1 12:-1 13:-0.207408 14:-1 
1 1 0 1:-1 2:-0.624736 3:-0.253761 4:-1 5:-0.530448 6:-1 7:-0.424844 8:-0.629569 9:-0.230716 10:-1 11:-1 12:-0.58883 13:-0.045452 14:-1 
1 1 0 1:-1 2:-0.69266 3:-0.242052 4:-1 5:-0.558585 6:-0.645602 7:-0.499209 8:-0.553952 9:-0.326419 10:-1 11:-1 12:-1 13:-0.134392 14:-1 
1 1 0 1:-1 2:-0.721114 3:-0.265147 4:-1 5:-0.571132 6:-0.678104 7:-0.503122 8:-0.591796 9:-0.339726 10:-1 11:-1 12:-1 13:-0.218592 14:-1 
1 1 0 1:-1 2:-0.533107 3:-0.379632 4:-1 5:-0.56813 6:-1 7:-0.429369 8:-0.726104 9:-0.33535 10:-1 11:-1 12:-1 13:-0.3662 14:-1 
1 1 0 1:-1 2:-0.653275 3:-0.167301 4:-1 5:-0.588543 6:-1 7:-0.516787 8:-0.770796 9:-0.325789 10:-1 11:-1 12:-0.590844 13:-0.345036 14:-1 
1 1 0 1:-1 2:-0.630355 3:-0.300328 4:-1 5:-0.568342 6:-0.68814 7:-0.454233 8:-0.576787 9:-0.396411 10:-1 11:-1 12:-1 13:-0.261652 14:-1 
1 1 0 1:-1 2:-1 3:-0.259208 4:-1 5:-0.515606 6:-1 7:-0.414219 8:-0.504198 9:-0.526063 10:-1 11:-1 12:-1 13:-0.4296 14:-1 
1 1 0 1:-1 2:-1 3:-0.276782 4:-1 5:-0.536903 6:-1 7:-0.440709 8:-0.453801 9:-0.491939 10:-1 11:-1 12:-1 13:-0.469888 14:-1 
1 1 0 1:-1 2:-0.687798 3:-0.34276 4:-1 5:-0.51115 6:-0.666645 7:-0.407634 8:-0.472164 9:-0.532276 10:-1 11:-1 12:-1 13:-0.408356 14:-1 
1 1 0 1:-0.797541 2:-0.731786 3:-0.426422 4:-1 5:-0.572468 6:-0.530421 7:-0.467162 8:-0.468653 9:-0.613838 10:-1 11:-1 12:-1 13:-0.465008 14:-1 
1 0 0 1:-1 2:-1 3:-0.56651 4:-1 5:-0.621406 6:-1 7:-0.519523 8:-0.431758 9:-0.446471 10:-1 11:-1 12:-0.617811 13:-0.611101 14:-1 
1 0 0 1:-1 2:-1 3:-1 4:-1 5:-0.578434 6:-1 7:-0.353794 8:-0.554109 9:-0.426741 10:-1 11:-1 12:-0.628733 13:-1 14:-1 
1 0 0 1:-1 2:-1 3:-0.423478 4:-1 5:-0.513673 6:-0.631643 7:-0.39515 8:-0.436465 9:-0.583985 10:-1 11:-1 12:-0.639204 13:-0.747932 14:-1 
1 1 0 1:-1 2:-0.683166 3:-0.35503 4:-1 5:-0.536816 6:-0.570199 7:-0.434605 8:-0.392208 9:-0.487553 10:-1 11:-1 12:-1 13:-0.5457 14:-1 
1 1 0 1:-1 2:-0.770794 3:-0.329392 4:-1 5:-0.531338 6:-0.631829 7:-0.433945 8:-0.418142 9:-0.480503 10:-1 11:-1 12:-1 13:-0.482672 14:-1 
1 0 0 1:-1 2:-1 3:-0.596528 4:-0.138722 5:-0.542943 6:-0.565823 7:-0.496508 8:-0.324017 9:-0.455046 10:-1 11:-1 12:-0.478533 13:-0.270172 14:-1 
1 0 0 1:-1 2:-1 3:-0.755412 4:-0.250279 5:-1 6:-0.629025 7:-0.646103 8:-0.635215 9:-0.446596 10:-1 11:-1 12:0.250003 13:-0.630982 14:-1 
0.4338600193310665 0 0 1:-1 2:-1 3:-1 4:-0.217685 5:-1 6:-0.687872 7:-0.598775 8:-0.586983 9:-0.44954 10:-1 11:-1 12:-0.0695127 13:-1 14:-1 
1 0 0 1:-1 2:-1 3:-1 4:-0.154205 5:-1 6:-0.662063 7:-0.661936 8:-0.622096 9:-0.470796 10:-1 11:-1 12:-0.221302 13:-1 14:-1 
1 0 0 1:-1 2:-1 3:-1 4:-0.255491 5:-1 6:-0.401865 7:-0.607012 8:-0.535857 9:-0.408127 10:-1 11:-1 12:-0.316095 13:-1 14:-1 
1 0 0 1:-1 2:-1 3:-1 4:-0.473077 5:-1 6:-0.66704 7:-0.629944 8:-0.591528 9:-0.42443 10:-1 11:-1 12:-0.150306 13:-1 14:-1 
1 0 0 1:-1 2:-1 3:-0.758644 4:-0.180101 5:-1 6:-0.68433 7:-0.662337 8:-0.583568 9:-0.336722 10:-1 11:-1 12:-0.144617 13:-1 14:-1 
0 1 0 1:-1 2:-1 3:-1 4:-0.375002 5:-1 6:-0.683423 7:-1 8:-0.683137 9:-0.59436 10:-1 11:-1 12:-0.11799 13:-0.293176 14:-1 
1 0 0 1:-1 2:-1 3:-0.619149 4:-0.386446 5:-1 6:-0.519381 7:-1 8:-0.491057 9:-0.467396 10:-1 11:-1 12:-0.277905 13:-0.384432 14:-1 
1 0 0 1:-1 2:-1 3:-0.74712 4:-1 5:0.0551925 6:-0.242788 7:0.19114 8:0.227757 9:-0.184226 10:-1 11:-1 12:-0.246 13:-0.055896 14:-1 
1 0 0 1:-1 2:-1 3:-0.623506 4:-1 5:0.0445365 6:-0.363622 7:0.196517 8:0.368908 9:-0.0160753 10:-1 11:-1 12:-0.100687 13:0.298692 14:-1 
1 0 0 1:-1 2:-1 3:-0.671032 4:-0.300888 5:-0.0342451 6:-0.322462 7:0.154924 8:0.258542 9:0.0133374 10:-1 11:-1 12:-0.0616653 13:0.008568 14:-1 
0 1 0 1:-0.682896 2:-0.585823 3:-1 4:-1 5:-0.43608 6:-1 7:-0.398759 8:-0.310736 9:-0.357791 10:-1 11:-1 12:-0.520658 13:-0.671612 14:-1 
0 1 0 1:-0.67437 2:-0.502993 3:-1 4:-1 5:-0.443727 6:-1 7:-0.398524 8:-0.320284 9:-0.489491 10:-1 11:-1 12:-0.21844 13:-0.543084 14:-1 
0.06109029835241973 1 0 1:-0.606646 2:-0.46399 3:-1 4:-1 5:-0.449981 6:-1 7:-0.356552 8:-0.337095 9:-0.470059 10:-1 11:-1 12:-0.296991 13:-1 14:-1 
0 1 0 1:-0.646957 2:-0.467172 3:-1 4:-0.430044 5:-0.525237 6:-1 7:-0.480184 8:-0.37098 9:-1 10:-1 11:-1 12:-1 13:-0.770613 14:-1 
0 1 0 1:-0.657374 2:-0.694403 3:-1 4:-0.391783 5:-0.505355 6:-1 7:-0.363333 8:-0.272339 9:-1 10:-1 11:-1 12:-1 13:-0.462268 14:-1 
1 1 0 1:-0.678364 2:-0.500572 3:-1 4:-0.52723 5:-0.539326 6:-0.339336 7:-0.344507 8:-0.374718 9:-1 10:-1 11:-1 12:-1 13:-0.50284 14:-1 
0 1 0 1:-0.66884 2:-0.503691 3:-1 4:-0.605523 5:-0.515487 6:-0.531086 7:-0.393301 8:-0.277878 9:-1 10:-1 11:-1 12:-1 13:-0.560788 14:-1 
0 1 0 1:-0.7623 2:-0.597778 3:-1 4:-0.476991 5:-0.539136 6:-0.317993 7:-0.433363 8:-0.364455 9:-1 10:-1 11:-1 12:-1 13:-0.727068 14:-1 
0 1 0 1:-0.716364 2:-0.656171 3:-1 4:-0.539275 5:-0.583993 6:-1 7:-0.531266 8:-0.441958 9:-0.633311 10:-0.467808 11:-1 12:-1 13:-0.53568 14:-1 
1 0 0 1:-1 2:-1 3:-1 4:-0.56738 5:-1 6:-1 7:-0.593597 8:-0.54326 9:-1 10:-1 11:-1 12:-1 13:-1 14:-1 
1 0 0 1:-0.739382 2:-0.706273 3:-1 4:-0.423022 5:-0.627754 6:-1 7:-0.570356 8:-0.490301 9:-1 10:-1 11:-1 12:-1 13:-1 14:-1 
1 0 0 1:-0.791065 2:-1 3:-1 4:-0.452518 5:-1 6:-1 7:-0.588178 8:-0.563553 9:-1 10:-1 11:-1 12:-1 13:-1 14:-1 
1 0.3270163298610577 0 1:-1 2:-0.766262 3:-1 4:-0.488199 5:-1 6:-1 7:-0.594668 8:-0.560885 9:-0.54645 10:-1 11:-1 12:-1 13:-1 14:-1 
0.5512852218398416 0 0 1:-1 2:-1 3:-1 4:-0.573599 5:-1 6:-1 7:-0.593645 8:-0.53425 9:-1 10:-1 11:-1 12:-1 13:-0.789964 14:-1 
1 0 0 1:-1 2:-1 3:-1 4:-1 5:-1 6:-1 7:-0.625775 8:-0.454914 9:-1 10:-1 11:-1 12:-0.607071 13:-1 14:-1 
0 1 0 1:-0.757106 2:-0.698613 3:-1 4:-1 5:-0.644636 6:-1 7:-0.541659 8:-0.48822 9:-0.539256 10:-0.541591 11:-1 12:-1 13:-0.694409 14:-1 
1 1 0 1:-1 2:-0.740338 3:-1 4:-1 5:-1 6:-1 7:-0.553101 8:-0.531951 9:-0.596666 10:-1 11:-1 12:-1 13:-0.566616 14:-1 
1 0 0 1:-1 2:-1 3:-1 4:-0.62263 5:-1 6:-1 7:-0.644423 8:-0.60046 9:-0.606965 10:-1 11:-1 12:-1 13:-0.662195 14:-1 
1 1 0 1:-0.775348 2:-1 3:-1 4:-0.614542 5:-0.63876 6:-1 7:-0.611178 8:-0.614293 9:-1 10:-1 11:-1 12:-0.628822 13:-0.791568 14:-1 
1 1 0 1:-0.764472 2:-0.686439 3:-1 4:-0.568538 5:-1 6:-1 7:-0.670961 8:-0.58466 9:-1 10:-0.552065 11:-1 12:-1 13:-0.719132 14:-1 
1 0 0 1:-1 2:-1 3:-1 4:-1 5:-1 6:-1 7:-0.660287 8:-0.657957 9:-1 10:-1 11:-1 12:-0.620004 13:-1 14:-1 
1 0 0 1:-1 2:-1 3:-1 4:-1 5:-1 6:-1 7:-1 8:-0.599936 9:-1 10:-1 11:-1 12:-1 13:-1 14:-1 
1 0 0 1:-1 2:-1 3:-1 4:-0.594954 5:-1 6:-1 7:-0.639237 8:-0.610371 9:-1 10:-1 11:-1 12:-1 13:-0.769219 14:-1 
1 1 0 1:-0.788826 2:-1 3:-1 4:-0.395749 5:-1 6:-1 7:-0.622338 8:-0.516652 9:-1 10:-1 11:-1 12:-1 13:-0.641402 14:-1 
1 0 0 1:-1 2:-1 3:-1 4:-0.558399 5:-1 6:-1 7:-0.633948 8:-0.59734 9:-1 10:-1 11:-1 12:-1 13:-0.735573 14:-1 
1 0 0 1:-1 2:-1 3:-1 4:-0.56363 5:-1 6:-1 7:-0.679243 8:-0.596007 9:-1 10:-1 11:-1 12:-1 13:-0.755367 14:-1 
0 0.07571209995181807 0 1:-0.778444 2:-0.709548 3:-1 4:-0.453516 5:-0.650067 6:-0.615497 7:-0.582305 8:-0.506981 9:-0.686207 10:-0.540873 11:-1 12:-1 13:-1 14:-1 
1 1 0 1:-0.7727 2:-0.68817 3:-1 4:-0.446659 5:-1 6:-0.670984 7:-0.679614 8:-0.568946 9:-1 10:-0.48326 11:-1 12:-1 13:-1 14:-1 
1 0 1 1:-1 2:-1 3:-1 4:-1 5:-1 6:-1 7:-1 8:-1 9:-1 10:-1 11:-1 12:-1 13:-1 14:-1 
1 1 0 1:-1 2:-1 3:-0.405921 4:-1 5:0.232327 6:-0.692069 7:0.214938 8:0.285277 9:-0.12605 10:-1 11:-1 12:-1 13:0.2337 14:-1 
0 1 0 1:-1 2:-1 3:-0.670029 4:-1 5:0.312285 6:-1 7:0.279406 8:0.378759 9:-0.224337 10:-1 11:-1 12:-1 13:0.362068 14:-1 
1 1 0 1:-1 2:-1 3:-0.432498 4:-1 5:0.377535 6:-1 7:0.341958 8:0.354703 9:-0.113887 10:-1 11:-1 12:-1 13:0.282708 14:-1 
1 0 0 1:-1 2:-0.693684 3:-0.459999 4:-1 5:0.424232 6:-1 7:0.357014 8:0.364518 9:0.0494125 10:-1 11:-1 12:-1 13:0.605076 14:-1 
1 0 0 1:-1 2:-0.757906 3:-0.537289 4:-1 5:0.661312 6:-1 7:0.603544 8:0.391448 9:0.0509453 10:-1 11:-1 12:-1 13:0.59506 14:-1 
0 1 0 1:-1 2:-1 3:-0.449753 4:-1 5:0.670317 6:-0.613967 7:0.765635 8:0.307826 9:0.623661 10:-1 11:-1 12:-1 13:0.1377 14:-1 
1 0 0 1:-1 2:-0.643148 3:-0.304238 4:-1 5:0.687756 6:-1 7:0.7196 8:0.383212 9:0.382779 10:-1 11:-1 12:-1 13:0.348084 14:-1 
1 0 0 1:-1 2:-0.60314 3:-0.458673 4:-1 5:0.72866 6:-0.665904 7:0.756196 8:0.370591 9:0.389676 10:-1 11:-1 12:-1 13:0.55524 14:-1 
1 1 0 1:-1 2:-0.695446 3:-0.42814 4:-1 5:0.623779 6:-0.593652 7:0.663052 8:0.432587 9:0.435733 10:-1 11:-1 12:-1 13:0.61606 14:-1 
0.04939624382490126 0 0 1:-1 2:-0.69848 3:-0.281996 4:-1 5:0.719862 6:-0.417079 7:0.677077 8:0.507352 9:0.396289 10:-1 11:-1 12:-1 13:0.513968 14:-1 
1 1 0 1:-1 2:-1 3:-0.395019 4:-1 5:0.703592 6:-0.26471 7:0.630746 8:0.461381 9:0.308706 10:-1 11:-1 12:-1 13:0.493964 14:-1 
0 1 0 1:-1 2:-1 3:-0.395717 4:-1 5:0.707438 6:-0.568184 7:0.640121 8:0.424993 9:0.262965 10:-1 11:-1 12:-1 13:0.496 14:-1 
0 1 0 1:-1 2:-1 3:-0.532362 4:-1 5:0.713671 6:-0.332967 7:0.6197 8:0.445981 9:0.41174 10:-1 11:-1 12:-1 13:0.576588 14:-1 
1 0 0 1:-1 2:-0.523589 3:-0.437525 4:-1 5:0.726039 6:-0.315122 7:0.6977 8:0.510208 9:0.221599 10:-1 11:-1 12:-1 13:0.58018 14:-1 
1 0 0 1:-1 2:-0.627293 3:-0.35003 4:-1 5:0.787251 6:-0.238723 7:0.746467 8:0.419902 9:0.390616 10:-1 11:-1 12:-1 13:0.72436 14:-1 
0.668781440751009 0 0 1:-1 2:-0.637819 3:-0.522322 4:-1 5:0.766276 6:-0.661844 7:0.743715 8:0.545844 9:0.583785 10:-1 11:-1 12:-1 13:0.899744 14:-1 
1 0 0 1:-1 2:-0.587023 3:-0.586522 4:-1 5:0.70556 6:-1 7:0.690767 8:0.528938 9:0.435801 10:-1 11:-1 12:-1 13:0.964312 14:-1 
0 0.6127529954388703 0 1:-0.57654 2:-0.570802 3:-0.303158 4:-1 5:0.718424 6:-0.231492 7:0.784208 8:0.305645 9:0.797646 10:-1 11:-1 12:-1 13:0.307364 14:-1 
0.9588618112309034 0 0 1:-0.553344 2:-0.75977 3:-0.376027 4:-1 5:0.62867 6:-0.367096 7:0.69503 8:0.173459 9:0.914908 10:-1 11:-1 12:-0.643301 13:0.36492 14:-1 
0.2225104398479694 0 0 1:-0.475592 2:-0.706687 3:-0.547818 4:-0.297844 5:0.54755 6:-0.689299 7:0.608617 8:0.350725 9:0.78175 10:-1 11:-1 12:-1 13:0.375628 14:-1 
1 0 0 1:-1 2:-0.770253 3:-0.125347 4:-0.648902 5:0.88577 6:-0.624442 7:0.79469 8:0.452412 9:0.656751 10:-1 11:-1 12:-1 13:0.72672 14:-1 
1 1 0 1:-1 2:-1 3:0.0241743 4:-1 5:0.865833 6:-0.397502 7:0.803179 8:0.198673 9:0.545021 10:-1 11:-1 12:-1 13:0.81324 14:-1 
1 0.3306172164347397 0 1:-1 2:-1 3:0.0308787 4:-0.366457 5:0.841233 6:-0.353889 7:0.846892 8:0.217571 9:0.633346 10:-1 11:-1 12:-1 13:0.484984 14:-1 
1 1 0 1:-1 2:-1 3:-0.333964 4:-0.401684 5:0.807277 6:-0.41309 7:0.819678 8:0.211326 9:0.623371 10:-1 11:-1 12:-1 13:0.471648 14:-1 
1 0 0 1:-1 2:-1 3:-0.397421 4:-0.378804 5:0.805069 6:-1 7:0.863782 8:0.264013 9:0.608556 10:-1 11:-1 12:-1 13:0.56938 14:-1 
0.3597760885705155 0 0 1:-1 2:-1 3:-0.288008 4:-0.460646 5:0.864375 6:-1 7:0.882659 8:0.234626 9:0.687103 10:-1 11:-1 12:-1 13:0.383696 14:-1 
1 0 0 1:-1 2:-1 3:-0.101715 4:-0.535471 5:0.981034 6:-1 7:0.979833 8:0.402919 9:0.701269 10:-1 11:-1 12:-1 13:0.8538 14:-1 
1 0 0 1:-1 2:-1 3:-0.153632 4:-0.50865 5:0.994235 6:-0.470999 7:0.937094 8:0.403684 9:0.737047 10:-1 11:-1 12:-1 13:0.9422 14:-1 
1 0 0 1:-0.786304 2:-0.387049 3:-0.374227 4:-0.546183 5:0.721761 6:0.0758834 7:0.812884 8:0.319429 9:0.763036 10:-1 11:-1 12:-1 13:0.1745 14:-1 
1 0 0 1:-1 2:-1 3:-0.212673 4:-0.582758 5:0.528322 6:-0.26038 7:0.739603 8:0.0691024 9:0.736015 10:-0.473328 11:-1 12:-0.309053 13:-0.766224 14:-1 
0.4633487089702339 0 0 1:-1 2:-1 3:-0.398511 4:-1 5:0.542081 6:-0.272689 7:0.706986 8:0.0876694 9:0.688747 10:-1 11:-1 12:-0.0673263 13:-1 14:-1 
1 0 0 1:-1 2:-1 3:-0.482455 4:-0.653475 5:0.612731 6:-0.228253 7:0.828857 8:0.226508 9:0.910038 10:-1 11:-1 12:-0.124486 13:-0.618012 14:-1 
1 0.612795155638905 0 1:-1 2:-1 3:-0.35461 4:-1 5:0.600032 6:-0.0562891 7:0.745537 8:0.0966882 9:0.729921 10:-1 11:-1 12:-0.365223 13:-0.31004 14:-1 
1 0 0 1:-1 2:-1 3:-0.405876 4:-0.639259 5:0.663899 6:-0.400341 7:0.882817 8:0.173698 9:0.697715 10:-1 11:-1 12:-0.0312644 13:-1 14:-1 
1 0 0 1:-1 2:-0.760591 3:-0.290401 4:-1 5:0.676777 6:-0.0731816 7:0.8309 8:0.200026 9:0.664365 10:-1 11:-1 12:-0.0799226 13:-0.661914 14:-1 
1 0 0 1:-1 2:-0.615844 3:-0.154033 4:-1 5:0.72745 6:0.165249 7:0.838124 8:0.258732 9:0.778685 10:-1 11:-1 12:-0.245129 13:-0.444156 14:-1 
1 0 0 1:-1 2:-1 3:-0.327925 4:-0.672903 5:0.691657 6:-0.170846 7:0.870766 8:0.268538 9:0.730811 10:-1 11:-1 12:-0.248889 13:-0.690115 14:-1 
1 0 0 1:-1 2:-1 3:-0.37497 4:-1 5:0.658402 6:-0.0438475 7:0.845785 8:0.226983 9:0.695144 10:-1 11:-1 12:-0.235715 13:-0.729448 14:-1 
0.8487721043746844 0 0 1:-1 2:-0.496552 3:-1 4:-1 5:0.582875 6:-1 7:0.572977 8:0.554514 9:0.267922 10:-1 11:-1 12:-0.642432 13:0.962972 14:-1 
0.9485973405431131 0 0 1:-0.583444 2:-0.236137 3:-1 4:-0.643339 5:0.640103 6:-0.376727 7:0.678393 8:0.645666 9:0.261797 10:-1 11:-1 12:-1 13:0.213236 14:-1 
1 0 0 1:-1 2:-0.46554 3:-0.715285 4:-0.652343 5:0.52804 6:-0.388964 7:0.536191 8:0.415803 9:0.154338 10:-1 11:-1 12:-1 13:0.641008 14:-1 
1 0 0 1:-1 2:-0.46854 3:-0.631329 4:-0.544759 5:0.513291 6:-0.42046 7:0.492327 8:0.462888 9:-0.010927 10:-1 11:-1 12:-1 13:0.412124 14:-1 
1 0 0 1:-1 2:-0.408833 3:-1 4:-0.553103 5:0.412578 6:-0.396599 7:0.399461 8:0.357984 9:0.000908523 10:-1 11:-1 12:-1 13:0.400156 14:-1 
1 0 0 1:-1 2:-0.435217 3:-1 4:-0.662526 5:0.462081 6:-0.140444 7:0.533009 8:0.449959 9:-0.209189 10:-1 11:-1 12:-1 13:0.36562 14:-1 
1 1 0 1:-0.794975 2:-0.571382 3:-0.701105 4:-0.635392 5:0.365861 6:-0.336827 7:0.432609 8:0.323809 9:-0.0930897 10:-1 11:-1 12:-1 13:0.196748 14:-1 
1 0 0 1:-1 2:-0.534585 3:-1 4:-0.674538 5:0.309141 6:-0.307795 7:0.414858 8:0.359436 9:-0.2615 10:-1 11:-1 12:-1 13:-0.157128 14:-1 
1 1 0 1:-0.587188 2:-0.351504 3:-0.636748 4:-1 5:0.0939228 6:-0.199715 7:0.135965 8:0.203461 9:-0.210611 10:-1 11:-1 12:-1 13:0.138164 14:-1 
1 1 0 1:-0.694909 2:-0.412876 3:-0.745374 4:-1 5:0.108727 6:-0.14361 7:0.250958 8:0.120667 9:-0.381499 10:-1 11:-1 12:-0.638078 13:0.013948 14:-1 
1 1 0 1:-0.69737 2:-0.43179 3:-0.608781 4:-1 5:0.0500743 6:-0.155298 7:0.0823075 8:0.0862033 9:-0.299807 10:-1 11:-1 12:-1 13:0.199452 14:-1 
1 0 0 1:-1 2:-0.510916 3:-0.527795 4:-1 5:0.494208 6:-0.446306 7:0.397633 8:0.372424 9:-0.00835594 10:-1 11:-1 12:-1 13:0.699844 14:-1 
0.5348847391133191 0 0 1:-1 2:-0.298713 3:-0.554392 4:-1 5:0.599846 6:-0.617158 7:0.532857 8:0.454819 9:-0.170994 10:-1 11:-1 12:-1 13:0.675284 14:-1 
1 0 0 1:-1 2:-0.572066 3:-0.58009 4:-1 5:0.580384 6:-0.608812 7:0.546509 8:0.477744 9:0.117033 10:-1 11:-1 12:-1 13:0.57734 14:-1 
1 0 0 1:-1 2:-0.528543 3:-0.533916 4:-1 5:0.591226 6:-0.511029 7:0.477442 8:0.506456 9:0.164467 10:-1 11:-1 12:-1 13:0.83838 14:-1 
1 1 0 1:-1 2:-1 3:-0.615015 4:-1 5:0.608775 6:-0.652881 7:0.507882 8:0.523679 9:0.236593 10:-1 11:-1 12:-1 13:0.737292 14:-1 
1 0 0 1:-1 2:-0.636599 3:-0.52265 4:-1 5:0.494414 6:-1 7:0.415953 8:0.479504 9:0.0127811 10:-1 11:-1 12:-1 13:0.756364 14:-1 
1 0 0 1:-1 2:-0.408325 3:-0.476489 4:-1 5:0.481811 6:-0.651692 7:0.377143 8:0.417011 9:0.053813 10:-1 11:-1 12:-1 13:0.710504 14:-1 
1 0 0 1:-1 2:-0.453488 3:-0.53069 4:-1 5:0.535311 6:-1 7:0.471394 8:0.476599 9:0.189449 10:-1 11:-1 12:-1 13:0.7952 14:-1 
0.9125892875774789 0 0 1:-1 2:-1 3:-0.674737 4:-1 5:0.466986 6:0.533018 7:0.565316 8:0.229884 9:0.282279 10:-1 11:-1 12:-1 13:-1 14:-1 
0 1 0 1:-1 2:-1 3:-0.551433 4:-1 5:0.403429 6:-0.1881 7:0.544301 8:0.349734 9:-0.4725 10:-1 11:-1 12:-1 13:-0.433448 14:-1 
0 1 0 1:-1 2:-1 3:-0.572134 4:-1 5:0.429253 6:-0.250055 7:0.502018 8:0.311487 9:-0.206834 10:-1 11:-1 12:-1 13:-0.3307 14:-1 
0 1 0 1:-1 2:-1 3:-1 4:-1 5:0.40821 6:-0.20963 7:0.535223 8:0.295486 9:-0.167749 10:-1 11:-1 12:-1 13:-0.295376 14:-1 
0 1 0 1:-1 2:-1 3:-0.725375 4:-1 5:0.395407 6:-0.466108 7:0.50372 8:0.315238 9:-0.294899 10:-1 11:-1 12:-1 13:-0.162184 14:-1 
1 0 0 1:-1 2:-0.155765 3:-0.359615 4:-1 5:0.433078 6:0.213363 7:0.398145 8:0.236531 9:-0.505475 10:-1 11:-1 12:-1 13:0.571812 14:-1 
0.5098839126051418 0.9880845924734819 0 1:-1 2:-0.473096 3:-0.239824 4:-1 5:0.403924 6:-0.210107 7:0.295348 8:0.2719 9:-1 10:-1 11:-1 12:-1 13:0.725088 14:-1 
1 0 0 1:-1 2:-0.521436 3:-0.0562334 4:-1 5:0.438671 6:-0.566034 7:0.363574 8:0.341779 9:-1 10:-1 11:-1 12:-1 13:0.823056 14:-1 
1 0.9490931892106756 0 1:-1 2:-0.738249 3:-0.386177 4:-1 5:0.470591 6:-1 7:0.407014 8:0.246052 9:-0.30268 10:-1 11:-1 12:-1 13:0.606512 14:-1 
1 0 0 1:-1 2:-0.533805 3:-0.154845 4:-1 5:0.483476 6:-1 7:0.448494 8:0.177341 9:-0.291043 10:-1 11:-1 12:-1 13:0.745672 14:-0.185637 
1 0 0 1:-1 2:-0.43053 3:-0.29469 4:-1 5:0.541572 6:-1 7:0.557585 8:0.246555 9:-0.224826 10:-1 11:-1 12:-1 13:0.711792 14:-0.177882 
1 1 0 1:-1 2:-0.687949 3:-0.252968 4:-1 5:0.556417 6:-0.676912 7:0.512835 8:0.326366 9:-0.286173 10:-1 11:-1 12:-1 13:0.88572 14:-1 
1 1 0 1:-1 2:-0.571675 3:-0.224578 4:-1 5:0.591887 6:-0.515825 7:0.591284 8:0.370071 9:-0.307149 10:-1 11:-1 12:-1 13:1 14:-1 
1 1 0 1:-1 2:-0.591523 3:-0.192984 4:-1 5:0.56514 6:-0.44876 7:0.559648 8:0.419961 9:-0.524628 10:-1 11:-1 12:-1 13:0.974376 14:-1 
1 0 0 1:-1 2:-0.388422 3:-0.133268 4:-1 5:0.516414 6:-1 7:0.499367 8:0.362903 9:-0.462941 10:-1 11:-1 12:-1 13:0.777408 14:-1 
1 0 0 1:-1 2:-0.486838 3:-0.10831 4:-1 5:0.539728 6:-1 7:0.554821 8:0.423473 9:-0.339602 10:-1 11:-1 12:-1 13:0.488048 14:-1 
1 0 0 1:-1 2:-0.635374 3:-0.190327 4:-1 5:0.625815 6:-1 7:0.630961 8:0.40691 9:-0.215629 10:-1 11:-1 12:-1 13:0.773568 14:-1 
1 1 0 1:-1 2:-0.743345 3:-0.240357 4:-1 5:0.607558 6:-1 7:0.583313 8:0.394186 9:-0.389287 10:-1 11:-1 12:-1 13:0.716608 14:-1 
1 1 0 1:-1 2:-0.581004 3:-0.228311 4:-1 5:0.626118 6:-0.563058 7:0.615702 8:0.392679 9:-0.24752 10:-1 11:-1 12:-1 13:0.869676 14:-1 
1 1 0 1:-1 2:-0.640411 3:-0.258109 4:-1 5:0.630177 6:-0.527186 7:0.616771 8:0.376189 9:-0.221575 10:-1 11:-1 12:-1 13:0.645228 14:-1 
1 1 0 1:-1 2:-0.514057 3:-0.221224 4:-1 5:0.558054 6:-0.522671 7:0.605283 8:0.324176 9:-0.522839 10:-1 11:-1 12:-1 13:0.67388 14:-1 
1 0 0 1:-1 2:-0.418723 3:-0.15448 4:-1 5:0.536233 6:-0.57918 7:0.526822 8:0.31851 9:-0.537712 10:-1 11:-1 12:-1 13:0.847632 14:-1 
1 1 0 1:-1 2:-0.491693 3:-0.270921 4:-1 5:0.53095 6:-0.436686 7:0.522128 8:0.213525 9:-0.552892 10:-1 11:-1 12:-1 13:0.667044 14:-1 
1 0 0 1:-0.768415 2:-0.382467 3:-0.222573 4:-1 5:0.442868 6:-1 7:0.375998 8:0.166531 9:-0.441031 10:-1 11:-1 12:-1 13:0.60938 14:-1 
1 0 0 1:-1 2:-0.551021 3:-0.167707 4:-1 5:0.515561 6:-1 7:0.4667 8:0.300559 9:-0.459344 10:-1 11:-1 12:-1 13:0.76918 14:-0.17443 
1 0 0 1:-0.791728 2:-0.514483 3:-0.0240831 4:-1 5:0.463492 6:-1 7:0.407837 8:0.279082 9:-0.443764 10:-1 11:-1 12:-1 13:0.706568 14:-0.144247 
0.3407628287253798 0 0 1:-1 2:-0.547487 3:-0.102098 4:-1 5:0.451529 6:-1 7:0.378092 8:0.314849 9:-0.685245 10:-1 11:-1 12:-1 13:0.720532 14:-0.04778 
1 0 0 1:-1 2:-0.582181 3:-0.0528196 4:-1 5:0.515967 6:-1 7:0.464638 8:0.228662 9:-0.358632 10:-1 11:-1 12:-1 13:0.573048 14:-1 
1 0 0 1:-1 2:-0.662532 3:-0.123642 4:-1 5:0.479094 6:-1 7:0.433906 8:0.238414 9:-0.519272 10:-1 11:-1 12:-1 13:0.683112 14:-0.166715 
1 0 0 1:-0.784171 2:-1 3:0.269823 4:-1 5:0.628099 6:-1 7:0.518213 8:0.185564 9:-0.658037 10:-1 11:-1 12:-1 13:0.751148 14:0.128035 
1 0 0 1:-1 2:-1 3:-0.108141 4:-1 5:0.269076 6:-0.641238 7:0.0584079 8:0.0819043 9:-1 10:-1 11:-1 12:-0.218669 13:0.970628 14:0.366258 
1 0 0 1:-0.314112 2:-1 3:0.0114901 4:-1 5:0.151812 6:-0.258782 7:-0.0271891 8:-0.386027 9:-0.305839 10:-1 11:0.128007 12:-0.372012 13:-1 14:-1 
0.6987832132304632 1 0 1:-0.3467 2:-0.559389 3:0.214009 4:-1 5:-0.103402 6:-1 7:-0.459201 8:-1 9:-1 10:-1 11:-0.11772 12:-1 13:-1 14:-1 
1 0 0 1:0.094564 2:-0.760777 3:0.160423 4:-1 5:0.0669905 6:-1 7:-0.499988 8:-1 9:-0.654298 10:-1 11:0.269369 12:-0.359005 13:-1 14:-1 
1 0 1 1:-1 2:-1 3:-1 4:-1 5:-1 6:-1 7:-1 8:-1 9:-1 10:-1 11:-1 12:-1 13:-1 14:-1 
1 0 1 1:-1 2:-1 3:-1 4:-1 5:-1 6:-1 7:-1 8:-1 9:-1 10:-1 11:-1 12:-1 13:-1 14:-1 
1 1 0 1:-1 2:-1 3:-1 4:-1 5:0.378333 6:-0.524113 7:0.502145 8:-0.00200241 9:0.105642 10:-1 11:-1 12:-1 13:-0.078632 14:-1 
1 1 0 1:-1 2:-1 3:-0.740454 4:-1 5:0.386788 6:-0.510264 7:0.48249 8:-0.0227144 9:0.106093 10:-1 11:-1 12:-1 13:-0.05402 14:-1 
1 1 0 1:-1 2:-1 3:-0.744641 4:-1 5:0.376249 6:-0.568501 7:0.466782 8:0.0396523 9:-0.0412297 10:-1 11:-1 12:-1 13:0.047324 14:-1 
0 1 0 1:-1 2:-1 3:-0.734391 4:-1 5:0.411188 6:-1 7:0.490384 8:0.0426435 9:-0.127997 10:-1 11:-1 12:-1 13:0.149132 14:-1 
1 1 0 1:-1 2:-1 3:-0.573226 4:-1 5:0.427155 6:-0.562583 7:0.515277 8:-0.001749 9:0.0127688 10:-1 11:-1 12:-1 13:0.287688 14:-1 
1 1 0 1:-1 2:-1 3:-0.470997 4:-1 5:0.432893 6:-0.415561 7:0.427163 8:0.00125122 9:-0.213763 10:-1 11:-1 12:-1 13:0.324252 14:-1 
1 1 0 1:-1 2:-1 3:-0.535124 4:-1 5:0.382392 6:-0.324193 7:0.414858 8:0.0696047 9:-0.105302 10:-1 11:-1 12:-1 13:0.148104 14:-1 
1 1 0 1:-1 2:-1 3:-0.60383 4:-1 5:0.368764 6:-0.180085 7:0.353617 8:0.0424353 9:-0.159529 10:-1 11:-1 12:-1 13:0.236948 14:-1 
0 1 0 1:-1 2:-1 3:-0.655665 4:-1 5:0.376063 6:-0.126838 7:0.31022 8:0.0556852 9:-0.156692 10:-1 11:-1 12:-1 13:0.188288 14:-1 
0 1 0 1:-1 2:-1 3:-0.553117 4:-1 5:0.340992 6:-0.223043 7:0.281886 8:0.10963 9:-0.243719 10:-1 11:-1 12:-1 13:0.18822 14:-1 
0 1 0 1:-1 2:-1 3:-0.622828 4:-1 5:0.296188 6:-0.26196 7:0.224067 8:0.0412768 9:-0.343088 10:-1 11:-1 12:-1 13:0.136912 14:-1 
0 1 0 1:-1 2:-1 3:-0.552336 4:-1 5:0.326573 6:-0.386045 7:0.246631 8:0.065428 9:-0.343224 10:-1 11:-1 12:-1 13:0.23752 14:-1 
0 1 0 1:-1 2:-1 3:-0.539851 4:-1 5:0.330061 6:-0.101032 7:0.24276 8:0.0601968 9:-0.253799 10:-1 11:-1 12:-1 13:0.042168 14:-1 
0 1 0 1:-1 2:-1 3:-0.567021 4:-1 5:0.351621 6:-0.279353 7:0.250433 8:-0.00469492 9:-0.432927 10:-1 11:-1 12:-1 13:0.25432 14:-1 
0 1 0 1:-1 2:-1 3:-0.499337 4:-1 5:0.386691 6:-0.130547 7:0.27897 8:0.112219 9:-0.279281 10:-1 11:-1 12:-1 13:0.305992 14:-1 
0 1 0 1:-1 2:-1 3:-0.483613 4:-1 5:0.37479 6:-0.0223052 7:0.239331 8:0.0880812 9:-0.352297 10:-1 11:-1 12:-1 13:0.20814 14:-1 
0 1 0 1:-1 2:-1 3:-0.739344 4:-1 5:0.290099 6:-0.510824 7:0.12843 8:0.0633554 9:-0.604494 10:-1 11:-1 12:-1 13:0.25272 14:-1 
0 1 0 1:-1 2:-1 3:-0.640664 4:-1 5:0.28549 6:-0.467546 7:0.147098 8:0.194148 9:-0.388304 10:-1 11:-1 12:-1 13:0.191172 14:-1 
0 1 0 1:-1 2:-1 3:-0.7631 4:-1 5:0.330199 6:-0.272255 7:0.196302 8:0.14218 9:-0.666632 10:-1 11:-1 12:-1 13:0.111132 14:-1 
0 1 0 1:-1 2:-1 3:-1 4:-1 5:0.368035 6:-0.353961 7:0.362688 8:0.159942 9:-0.488575 10:-1 11:-1 12:-1 13:0.0306 14:-1 
0 1 0 1:-1 2:-1 3:-0.677784 4:-1 5:0.34406 6:-0.429116 7:0.357672 8:0.1978 9:-0.547058 10:-1 11:-1 12:-1 13:-0.069412 14:-1 
0 1 0 1:-1 2:-1 3:-0.696519 4:-0.626305 5:0.418694 6:-0.230431 7:0.45761 8:0.142207 9:-0.392376 10:-1 11:-1 12:-1 13:-0.087748 14:-1 
1 1 0 1:-1 2:-1 3:-0.683323 4:-0.684674 5:0.351132 6:0.124076 7:0.409089 8:0.103241 9:-0.450201 10:-1 11:-1 12:-1 13:-0.174536 14:-1 
0 1 0 1:-1 2:-1 3:-0.598462 4:-1 5:0.335943 6:0.0368999 7:0.323581 8:0.136546 9:-0.455099 10:-1 11:-1 12:-1 13:-0.040284 14:-1 
0 1 0 1:-1 2:-0.757799 3:-0.666309 4:-1 5:0.429357 6:-0.0522002 7:0.47512 8:0.209339 9:-0.319534 10:-1 11:-1 12:-1 13:-0.05042 14:-1 
0 1 0 1:-1 2:-0.765927 3:-0.485723 4:-1 5:0.383609 6:0.0593046 7:0.388827 8:0.187573 9:-0.30498 10:-1 11:-1 12:-1 13:-0.000536 14:-1 
0 1 0 1:-1 2:-1 3:-0.513648 4:-1 5:0.394912 6:-0.086938 7:0.398809 8:0.245288 9:-0.398155 10:-1 11:-1 12:-1 13:-0.115592 14:-1 
0 1 0 1:-1 2:-1 3:-0.597077 4:-1 5:0.411237 6:0.0157979 7:0.416858 8:0.198818 9:-0.324096 10:-1 11:-1 12:-1 13:-0.108044 14:-1 
0 1 0 1:-1 2:-1 3:-0.667714 4:-0.649335 5:0.285442 6:-0.161576 7:0.290281 8:0.119197 9:-0.45759 10:-1 11:-1 12:-1 13:-0.204532 14:-1 
0 1 0 1:-1 2:-1 3:-1 4:-1 5:0.227911 6:-0.185097 7:0.29042 8:0.0969145 9:-0.148812 10:-1 11:-1 12:-1 13:-0.143648 14:-1 
1 0 0 1:-1 2:-0.75257 3:-1 4:-1 5:0.170565 6:-0.0708778 7:0.251736 8:0.0373173 9:-0.384308 10:-1 11:-1 12:-1 13:-0.187976 14:-1 
0 0.956641597250373 0 1:-1 2:-1 3:-0.496128 4:-1 5:0.0128918 6:-0.308362 7:0.00399803 8:-0.21295 9:-1 10:-1 11:-1 12:-0.362655 13:-0.267704 14:-1 
1 0 0 1:-1 2:-0.651566 3:-0.544607 4:-1 5:0.0423557 6:-0.145232 7:-0.0290047 8:-0.1377 9:-0.558395 10:-1 11:-1 12:-0.429912 13:-0.0555 14:-1 
1 0 0 1:-1 2:-0.656663 3:-0.641122 4:-1 5:-0.00703751 6:-0.14589 7:0.0338187 8:-0.26152 9:-0.0869401 10:-1 11:-1 12:0.0602796 13:-1 14:-1 
1 0 0 1:-1 2:-1 3:-0.52471 4:-1 5:-0.0858328 6:-0.126923 7:0.0283594 8:-0.240034 9:0.0884296 10:-1 11:-1 12:0.0195524 13:-1 14:-1 
1 0 0 1:-1 2:-1 3:-0.622026 4:-1 5:-0.0102708 6:0.213309 7:0.164817 8:-0.15824 9:0.141594 10:-1 11:-1 12:-0.0146643 13:-1 14:-1 
1 0 0 1:-1 2:-1 3:-0.738429 4:-0.57432 5:-0.0871124 6:0.00854273 7:0.129449 8:-0.228169 9:0.161692 10:-1 11:-0.535489 12:0.252608 13:-1 14:-1 
1 0 1 1:-1 2:-1 3:-1 4:-1 5:-1 6:-1 7:-1 8:-1 9:-1 10:-1 11:-1 12:-1 13:-1 14:-1 
1 0 1 1:-1 2:-1 3:-1 4:-1 5:-1 6:-1 7:-1 8:-1 9:-1 10:-1 11:-1 12:-1 13:-1 14:-1 
1 0 1 1:-1 2:-1 3:-1 4:-1 5:-1 6:-1 7:-1 8:-1 9:-1 10:-1 11:-1 12:-1 13:-1 14:-1 
1 0 1 1:-1 2:-1 3:-1 4:-1 5:-1 6:-1 7:-1 8:-1 9:-1 10:-1 11:-1 12:-1 13:-1 14:-1 
1 0 1 1:-1 2:-1 3:-1 4:-1 5:-1 6:-1 7:-1 8:-1 9:-1 10:-1 11:-1 12:-1 13:-1 14:-1 
1 0 1 1:-1 2:-1 3:-1 4:-1 5:-1 6:-1 7:-1 8:-1 9:-1 10:-1 11:-1 12:-1 13:-1 14:-1 
1 0 1 1:-1 2:-1 3:-1 4:-1 5:-1 6:-1 7:-1 8:-1 9:-1 10:-1 11:-1 12:-1 13:-1 14:-1 
1 0 1 1:-1 2:-1 3:-1 4:-1 5:-1 6:-1 7:-1 8:-1 9:-1 10:-1 11:-1 12:-1 13:-1 14:-1 
1 0.4603236438235306 1 1:-1 2:-1 3:-1 4:-1 5:-1 6:-1 7:-1 8:-1 9:-1 10:-1 11:-1 12:-1 13:-1 14:-1 
1 1 1 1:-1 2:-1 3:-1 4:-1 5:-1 6:-1 7:-1 8:-1 9:-1 10:-1 11:-1 12:-1 13:-1 14:-1 
1 1 1 1:-1 2:-1 3:-1 4:-1 5:-1 6:-1 7:-1 8:-1 9:-1 10:-1 11:-1 12:-1 13:-1 14:-1 
1 0 0 1:-1 2:-1 3:-1 4:-1 5:0.0492006 6:0.446903 7:0.211478 8:0.0846783 9:0.0688376 10:-1 11:-1 12:0.0128539 13:-1 14:-1 
1 0 0 1:-1 2:-0.681435 3:-0.726724 4:-1 5:-0.0630899 6:0.589153 7:0.0834651 8:-0.217272 9:-0.164455 10:-1 11:-0.521601 12:0.451627 13:-1 14:-1 
1 1 1 1:-1 2:-1 3:-1 4:-1 5:-1 6:-1 7:-1 8:-1 9:-1 10:-1 11:-1 12:-1 13:-1 14:-1 
1 1 1 1:-1 2:-1 3:-1 4:-1 5:-1 6:-1 7:-1 8:-1 9:-1 10:-1 11:-1 12:-1 13:-1 14:-1 
1 1 1 1:-1 2:-1 3:-1 4:-1 5:-1 6:-1 7:-1 8:-1 9:-1 10:-1 11:-1 12:-1 13:-1 14:-1 
1 1 1 1:-1 2:-1 3:-1 4:-1 5:-1 6:-1 7:-1 8:-1 9:-1 10:-1 11:-1 12:-1 13:-1 14:-1 
1 1 1 1:-1 2:-1 3:-1 4:-1 5:-1 6:-1 7:-1 8:-1 9:-1 10:-1 11:-1 12:-1 13:-1 14:-1 
1 1 1 1:-1 2:-1 3:-1 4:-1 5:-1 6:-1 7:-1 8:-1 9:-1 10:-1 11:-1 12:-1 13:-1 14:-1 
1 1 1 1:-1 2:-1 3:-1 4:-1 5:-1 6:-1 7:-1 8:-1 9:-1 10:-1 11:-1 12:-1 13:-1 14:-1 
1 1 1 1:-1 2:-1 3:-1 4:-1 5:-1 6:-1 7:-1 8:-1 9:-1 10:-1 11:-1 12:-1 13:-1 14:-1 
1 1 1 1:-1 2:-1 3:-1 4:-1 5:-1 6:-1 7:-1 8:-1 9:-1 10:-1 11:-1 12:-1 13:-1 14:-1 
1 1 1 1:-1 2:-1 3:-1 4:-1 5:-1 6:-1 7:-1 8:-1 9:-1 10:-1 11:-1 12:-1 13:-1 14:-1 
1 1 1 1:-1 2:-1 3:-1 4:-1 5:-1 6:-1 7:-1 8:-1 9:-1 10:-1 11:-1 12:-1 13:-1 14:-1 
1 1 1 1:-1 2:-1 3:-1 4:-1 5:-1 6:-1 7:-1 8:-1 9:-1 10:-1 11:-1 12:-1 13:-1 14:-1 
1 1 1 1:-1 2:-1 3:-1 4:-1 5:-1 6:-1 7:-1 8:-1 9:-1 10:-1 11:-1 12:-1 13:-1 14:-1 
1 1 1 1:-1 2:-1 3:-1 4:-1 5:-1 6:-1 7:-1 8:-1 9:-1 10:-1 11:-1 12:-1 13:-1 14:-1 
1 1 1 1:-1 2:-1 3:-1 4:-1 5:-1 6:-1 7:-1 8:-1 9:-1 10:-1 11:-1 12:-1 13:-1 14:-1 
1 1 1 1:-1 2:-1 3:-1 4:-1 5:-1 6:-1 7:-1 8:-1 9:-1 10:-1 11:-1 12:-1 13:-1 14:-1 
1 0 0 1:-1 2:-1 3:-0.303536 4:-0.404439 5:-0.232286 6:0.0474841 7:-0.119985 8:-0.247681 9:-1 10:-1 11:-1 12:0.591384 13:-1 14:-1 
1 0 0 1:-1 2:-1 3:-0.193927 4:-0.653965 5:-0.253275 6:0.122182 7:-0.208916 8:-0.338227 9:-1 10:-1 11:-1 12:0.73075 13:-1 14:-1 
1 1 0 1:-0.753197 2:-0.646134 3:-0.203909 4:-1 5:-0.497437 6:0.1267 7:-0.508929 8:-0.406951 9:-1 10:-1 11:-1 12:-0.245227 13:-0.364364 14:-1 
1 0 0 1:-0.608075 2:-0.536511 3:-0.626031 4:-1 5:-0.518264 6:0.0540999 7:-0.644917 8:-0.511144 9:-1 10:-1 11:-1 12:0.12168 13:-0.737847 14:-1 
1 1 0 1:-0.391616 2:-0.652347 3:-0.47741 4:-1 5:-1 6:0.142796 7:-1 8:-1 9:-1 10:-0.554657 11:-0.518617 12:0.0450583 13:-0.745848 14:-1 
1 1 0 1:-0.491696 2:-0.638382 3:-0.655815 4:-1 5:-1 6:-0.158609 7:-1 8:-1 9:-1 10:-0.30465 11:-0.436956 12:0.0655298 13:-1 14:-1 
1 1 0 1:-0.494956 2:-0.77172 3:-1 4:-1 5:-1 6:-0.176539 7:-1 8:-1 9:-1 10:-0.358872 11:-0.417985 12:0.359255 13:-1 14:-1 
0.7267621966244465 1 0 1:-0.435692 2:-0.756567 3:-1 4:-1 5:-1 6:-0.391847 7:-1 8:-1 9:-1 10:-0.276569 11:-0.247307 12:0.619772 13:-1 14:-1 
0.3853106023924741 0 0 1:-0.54564 2:-1 3:-1 4:-1 5:-1 6:-0.00673347 7:-1 8:-1 9:-1 10:0.338246 11:-0.0516838 12:0.231941 13:-1 14:-1 
1 0 0 1:-0.631239 2:-1 3:-1 4:-1 5:-1 6:-0.158181 7:-1 8:-1 9:-1 10:0.074633 11:0.192117 12:0.0799086 13:-1 14:-1 
0 1 0 1:-1 2:-1 3:-1 4:-1 5:-0.446417 6:-0.350903 7:-0.580298 8:-0.451624 9:-1 10:-0.572742 11:-1 12:-0.240652 13:-0.057412 14:-1 
1 1 1 1:-1 2:-1 3:-1 4:-1 5:-1 6:-1 7:-1 8:-1 9:-1 10:-1 11:-1 12:-1 13:-1 14:-1 
1 1 1 1:-1 2:-1 3:-1 4:-1 5:-1 6:-1 7:-1 8:-1 9:-1 10:-1 11:-1 12:-1 13:-1 14:-1 
1 1 1 1:-1 2:-1 3:-1 4:-1 5:-1 6:-1 7:-1 8:-1 9:-1 10:-1 11:-1 12:-1 13:-1 14:-1 
1 1 1 1:-1 2:-1 3:-1 4:-1 5:-1 6:-1 7:-1 8:-1 9:-1 10:-1 11:-1 12:-1 13:-1 14:-1 
1 1 1 1:-1 2:-1 3:-1 4:-1 5:-1 6:-1 7:-1 8:-1 9:-1 10:-1 11:-1 12:-1 13:-1 14:-1 
1 1 1 1:-1 2:-1 3:-1 4:-1 5:-1 6:-1 7:-1 8:-1 9:-1 10:-1 11:-1 12:-1 13:-1 14:-1 
1 1 1 1:-1 2:-1 3:-1 4:-1 5:-1 6:-1 7:-1 8:-1 9:-1 10:-1 11:-1 12:-1 13:-1 14:-1 
1 1 1 1:-1 2:-1 3:-1 4:-1 5:-1 6:-1 7:-1 8:-1 9:-1 10:-1 11:-1 12:-1 13:-1 14:-1 
1 1 1 1:-1 2:-1 3:-1 4:-1 5:-1 6:-1 7:-1 8:-1 9:-1 10:-1 11:-1 12:-1 13:-1 14:-1 
1 1 1 1:-1 2:-1 3:-1 4:-1 5:-1 6:-1 7:-1 8:-1 9:-1 10:-1 11:-1 12:-1 13:-1 14:-1 
1 1 1 1:-1 2:-1 3:-1 4:-1 5:-1 6:-1 7:-1 8:-1 9:-1 10:-1 11:-1 12:-1 13:-1 14:-1 
1 1 1 1:-1 2:-1 3:-1 4:-1 5:-1 6:-1 7:-1 8:-1 9:-1 10:-1 11:-1 12:-1 13:-1 14:-1 
1 1 1 1:-1 2:-1 3:-1 4:-1 5:-1 6:-1 7:-1 8:-1 9:-1 10:-1 11:-1 12:-1 13:-1 14:-1 
1 1 1 1:-1 2:-1 3:-1 4:-1 5:-1 6:-1 7:-1 8:-1 9:-1 10:-1 11:-1 12:-1 13:-1 14:-1 
1 1 1 1:-1 2:-1 3:-1 4:-1 5:-1 6:-1 7:-1 8:-1 9:-1 10:-1 11:-1 12:-1 13:-1 14:-1 
1 1 1 1:-1 2:-1 3:-1 4:-1 5:-1 6:-1 7:-1 8:-1 9:-1 10:-1 11:-1 12:-1 13:-1 14:-1 
1 1 1 1:-1 2:-1 3:-1 4:-1 5:-1 6:-1 7:-1 8:-1 9:-1 10:-1 11:-1 12:-1 13:-1 14:-1 
1 1 1 1:-1 2:-1 3:-1 4:-1 5:-1 6:-1 7:-1 8:-1 9:-1 10:-1 11:-1 12:-1 13:-1 14:-1 
1 1 1 1:-1 2:-1 3:-1 4:-1 5:-1 6:-1 7:-1 8:-1 9:-1 10:-1 11:-1 12:-1 13:-1 14:-1 
1 1 1 1:-1 2:-1 3:-1 4:-1 5:-1 6:-1 7:-1 8:-1 9:-1 10:-1 11:-1 12:-1 13:-1 14:-1 
1 1 1 1:-1 2:-1 3:-1 4:-1 5:-1 6:-1 7:-1 8:-1 9:-1 10:-1 11:-1 12:-1 13:-1 14:-1 
1 1 1 1:-1 2:-1 3:-1 4:-1 5:-1 6:-1 7:-1 8:-1 9:-1 10:-1 11:-1 12:-1 13:-1 14:-1 
1 1 1 1:-1 2:-1 3:-1 4:-1 5:-1 6:-1 7:-1 8:-1 9:-1 10:-1 11:-1 12:-1 13:-1 14:-1 
1 1 1 1:-1 2:-1 3:-1 4:-1 5:-1 6:-1 7:-1 8:-1 9:-1 10:-1 11:-1 12:-1 13:-1 14:-1 
1 1 1 1:-1 2:-1 3:-1 4:-1 5:-1 6:-1 7:-1 8:-1 9:-1 10:-1 11:-1 12:-1 13:-1 14:-1 
1 1 1 1:-1 2:-1 3:-1 4:-1 5:-1 6:-1 7:-1 8:-1 9:-1 10:-1 11:-1 12:-1 13:-1 14:-1 
1 1 1 1:-1 2:-1 3:-1 4:-1 5:-1 6:-1 7:-1 8:-1 9:-1 10:-1 11:-1 12:-1 13:-1 14:-1 
1 1 1 1:-1 2:-1 3:-1 4:-1 5:-1 6:-1 7:-1 8:-1 9:-1 10:-1 11:-1 12:-1 13:-1 14:-1 
1 1 1 1:-1 2:-1 3:-1 4:-1 5:-1 6:-1 7:-1 8:-1 9:-1 10:-1 11:-1 12:-1 13:-1 14:-1 
1 1 1 1:-1 2:-1 3:-1 4:-1 5:-1 6:-1 7:-1 8:-1 9:-1 10:-1 11:-1 12:-1 13:-1 14:-1 
1 1 1 1:-1 2:-1 3:-1 4:-1 5:-1 6:-1 7:-1 8:-1 9:-1 10:-1 11:-1 12:-1 13:-1 14:-1 
1 1 1 1:-1 2:-1 3:-1 4:-1 5:-1 6:-1 7:-1 8:-1 9:-1 10:-1 11:-1 12:-1 13:-1 14:-1 
1 1 1 1:-1 2:-1 3:-1 4:-1 5:-1 6:-1 7:-1 8:-1 9:-1 10:-1 11:-1 12:-1 13:-1 14:-1 
1 1 1 1:-1 2:-1 3:-1 4:-1 5:-1 6:-1 7:-1 8:-1 9:-1 10:-1 11:-1 12:-1 13:-1 14:-1 
1 1 1 1:-1 2:-1 3:-1 4:-1 5:-1 6:-1 7:-1 8:-1 9:-1 10:-1 11:-1 12:-1 13:-1 14:-1 
1 1 1 1:-1 2:-1 3:-1 4:-1 5:-1 6:-1 7:-1 8:-1 9:-1 10:-1 11:-1 12:-1 13:-1 14:-1 
1 1 1 1:-1 2:-1 3:-1 4:-1 5:-1 6:-1 7:-1 8:-1 9:-1 10:-1 11:-1 12:-1 13:-1 14:-1 
1 1 1 1:-1 2:-1 3:-1 4:-1 5:-1 6:-1 7:-1 8:-1 9:-1 10:-1 11:-1 12:-1 13:-1 14:-1 
0.7218236570659354 0 0 1:-0.79926 2:-1 3:0.398401 4:-1 5:-0.324662 6:-1 7:-0.212243 8:-0.366903 9:-0.0963591 10:-0.223489 11:-0.156005 12:-1 13:-1 14:-1 
1 0 0 1:-0.759623 2:-1 3:0.182095 4:-0.632885 5:-0.529522 6:-1 7:-0.206816 8:-0.30731 9:0.24938 10:0.036154 11:-0.246747 12:-1 13:-0.377964 14:-1 
1 0 0 1:-1 2:-1 3:-0.496101 4:-0.485889 5:-0.249113 6:-1 7:0.0769051 8:-0.0752251 9:0.188516 10:0.0886009 11:-1 12:-1 13:-0.42406 14:-1 
1 1 0 1:-1 2:-1 3:-0.518616 4:-0.316815 5:-0.206839 6:-1 7:0.12213 8:0.139678 9:0.288855 10:-1 11:-1 12:-1 13:-0.012752 14:-1 
1 1 0 1:-1 2:-1 3:-0.594248 4:-0.455776 5:-0.204246 6:-1 7:0.162825 8:0.0634233 9:0.199714 10:-1 11:-1 12:-0.484499 13:0.298292 14:-1 
0.9892461865707622 0 0 1:-1 2:-1 3:-1 4:-0.65616 5:-0.185837 6:-1 7:0.191532 8:-0.0515038 9:-0.0195363 10:-1 11:-1 12:-0.132243 13:-0.171716 14:-1 
1 0.9698351421723104 0 1:-1 2:-1 3:-1 4:-1 5:-0.209385 6:-1 7:0.00814788 8:-0.440583 9:-0.173837 10:-1 11:-1 12:0.725779 13:-0.09254 14:-1 
0 0.4684536580970291 0 1:-1 2:-1 3:-1 4:-1 5:-0.37509 6:-1 7:-0.276104 8:-0.459032 9:-0.52463 10:-1 11:-1 12:-0.21257 13:-0.37242 14:-1 
1 0 0 1:-1 2:-0.768847 3:-1 4:-1 5:-0.408178 6:-1 7:-0.2851 8:-0.449642 9:-0.633556 10:-1 11:-0.479683 12:-0.501738 13:-1 14:-1 
1 1 0 1:-1 2:-1 3:-1 4:-1 5:-0.427821 6:-1 7:-0.31041 8:-0.543301 9:-1 10:-1 11:-0.410773 12:-0.348068 13:0.41032 14:-1 
1 1 0 1:-1 2:-0.410229 3:-0.400174 4:-0.614854 5:-0.191444 6:-1 7:-0.121725 8:-0.198899 9:-0.153856 10:-1 11:-1 12:-0.390734 13:0.484832 14:-1 
1 0 0 1:-1 2:-0.509098 3:-0.545872 4:-0.679923 5:0.114286 6:-0.606213 7:0.178222 8:0.168255 9:0.294337 10:-1 11:-0.44156 12:-0.0506497 13:0.25382 14:-1 
1 0 0 1:-1 2:-0.738813 3:-0.735379 4:-1 5:0.220777 6:-0.368242 7:0.23799 8:0.234495 9:0.537506 10:-1 11:-1 12:-0.101104 13:0.364252 14:-1 
1 0 0 1:-1 2:-1 3:-0.490148 4:-1 5:0.154433 6:-0.0725484 7:0.126963 8:0.286259 9:0.37739 10:-1 11:-1 12:-0.230549 13:0.418944 14:-1 
1 0 0 1:-1 2:-1 3:-0.407166 4:-1 5:0.173434 6:0.0198808 7:0.163211 8:0.375207 9:0.343564 10:-0.342507 11:-1 12:-0.238305 13:0.357928 14:-1 
1 0 0 1:-1 2:-1 3:-0.393985 4:-1 5:0.170352 6:0.0599861 7:0.132175 8:0.224621 9:0.314386 10:-0.464129 11:-1 12:-0.341486 13:0.253292 14:-1 
1 0 0 1:-1 2:-1 3:-0.284426 4:-1 5:0.209522 6:0.296077 7:0.157998 8:0.296794 9:0.196062 10:-1 11:-1 12:-0.519681 13:0.252508 14:-1 
1 0 0 1:-1 2:-1 3:-0.272184 4:-1 5:0.198474 6:0.274124 7:0.162413 8:0.249636 9:0.182731 10:-1 11:-1 12:-0.513185 13:0.171504 14:-1 
1 0 0 1:-1 2:-1 3:-0.303199 4:-1 5:0.229108 6:0.0848634 7:0.156397 8:0.221372 9:0.157323 10:-0.404806 11:-1 12:-0.505288 13:0.15554 14:-1 
1 0 0 1:-1 2:-1 3:-0.43247 4:-1 5:0.199657 6:-0.353665 7:0.170448 8:0.271213 9:0.208472 10:-0.539432 11:-1 12:-0.306125 13:0.342444 14:-1 
1 0 0 1:-1 2:-1 3:-0.380311 4:-1 5:0.258778 6:-0.292965 7:0.200129 8:0.321687 9:0.152589 10:-1 11:-1 12:-0.442592 13:0.28846 14:-1 
1 0 0 1:-1 2:-1 3:-0.44654 4:-1 5:0.265643 6:-0.208159 7:0.230209 8:0.265565 9:0.218107 10:-0.493348 11:-1 12:-0.0878814 13:0.18588 14:-1 
1 0 0 1:-1 2:-1 3:-0.480463 4:-1 5:0.30685 6:-0.0933066 7:0.263787 8:0.377967 9:0.320023 10:-1 11:-1 12:-0.233675 13:0.151004 14:-1 
1 0 0 1:-1 2:-1 3:-0.54527 4:-1 5:0.301416 6:0.221529 7:0.226597 8:0.324289 9:0.335418 10:-1 11:-1 12:-0.518922 13:0.296616 14:-1 
1 1 0 1:-1 2:-1 3:-0.564276 4:-1 5:0.344411 6:-0.219641 7:0.239591 8:0.431084 9:0.107805 10:-1 11:-1 12:-1 13:0.425472 14:-1 
1 1 0 1:-1 2:-1 3:-0.717052 4:-1 5:0.352219 6:-1 7:0.296828 8:0.467558 9:0.154962 10:-1 11:-1 12:-1 13:0.674644 14:-1 
1 0 0 1:-1 2:-1 3:-1 4:-1 5:0.346936 6:-1 7:0.230159 8:0.326307 9:-0.0649996 10:-1 11:-1 12:-0.647185 13:1 14:-1 
1 0 0 1:-1 2:-1 3:-1 4:-0.372026 5:0.161904 6:-1 7:0.111388 8:0.237957 9:-0.144078 10:-1 11:-1 12:-0.593204 13:1 14:-1 
1 0 0 1:-1 2:-1 3:-1 4:-0.252719 5:0.193741 6:-1 7:0.145656 8:0.270022 9:-0.158917 10:-0.569683 11:-1 12:-1 13:0.939572 14:-1 
1 0 0 1:-1 2:-0.735785 3:-1 4:-0.27424 5:0.231949 6:-1 7:0.186762 8:0.183211 9:-0.215932 10:-1 11:-1 12:-1 13:0.767396 14:-1 
1 0 0 1:-1 2:-1 3:-1 4:-0.395349 5:0.289989 6:-1 7:0.267096 8:0.264882 9:-0.25718 10:-1 11:-1 12:-1 13:0.827864 14:-1 
1 0 0 1:-1 2:-1 3:-1 4:-0.327671 5:0.298258 6:-1 7:0.245708 8:0.284983 9:-0.180357 10:-1 11:-1 12:-1 13:0.955712 14:-1 
1 0 0 1:-1 2:-1 3:-1 4:-0.245288 5:0.269936 6:-1 7:0.251907 8:0.331086 9:-0.244603 10:-1 11:-1 12:-1 13:0.990052 14:-1 
0.3617453425884001 0 0 1:-1 2:-1 3:-1 4:-0.360197 5:0.291971 6:-1 7:0.276111 8:0.272824 9:-0.203781 10:-0.495827 11:-1 12:-1 13:0.844756 14:-1 
1 0.1868751700192244 0 1:-1 2:-1 3:-1 4:-0.456263 5:0.241353 6:-1 7:0.260207 8:0.21414 9:-0.113139 10:-0.399187 11:-1 12:-1 13:0.924928 14:-1 
1 0 0 1:-1 2:-1 3:-1 4:-0.495054 5:0.276891 6:-1 7:0.254273 8:0.193668 9:-0.239016 10:-1 11:-1 12:-1 13:0.804428 14:-1 
0.1542513841338172 1 0 1:-1 2:-1 3:-1 4:-0.560728 5:0.229706 6:-1 7:0.159795 8:0.124835 9:-0.486019 10:-0.204085 11:-1 12:-1 13:0.790264 14:-1 
0.3082609952841509 0 0 1:-1 2:-1 3:-1 4:-0.0853034 5:0.0939435 6:-1 7:0.0200597 8:0.143194 9:-0.446631 10:-0.424467 11:-1 12:-1 13:0.847884 14:-1 
1 0 0 1:-1 2:-1 3:-1 4:-0.179196 5:0.140702 6:-1 7:0.160598 8:-0.0211351 9:-0.327575 10:-0.261066 11:-1 12:-1 13:0.622512 14:-1 
0.1563867406583097 0 0 1:-1 2:-1 3:-1 4:-0.0831161 5:0.330955 6:-1 7:0.278628 8:0.366459 9:-0.528911 10:-1 11:-1 12:-1 13:0.590064 14:-1 
1 0 0 1:-1 2:-1 3:-0.69023 4:-0.139437 5:0.278659 6:-1 7:0.239344 8:0.347838 9:-0.6067 10:-1 11:-1 12:-1 13:0.32018 14:-1 
1 0 0 1:-1 2:-1 3:-0.649267 4:-0.20975 5:0.190302 6:-1 7:0.195606 8:0.209751 9:-0.469742 10:-1 11:-1 12:-1 13:0.319932 14:-1 
1 0 0 1:-1 2:-0.695872 3:-0.53888 4:-0.159683 5:0.143543 6:-1 7:0.12974 8:0.115911 9:-0.522816 10:-1 11:-1 12:-1 13:0.099428 14:-1 
1 1 0 1:-0.794849 2:-0.714776 3:-0.647034 4:-0.170749 5:-0.457494 6:-0.342508 7:-0.45232 8:-0.601077 9:-0.482189 10:-1 11:-1 12:-0.446996 13:-0.632575 14:-1 
1 1 0 1:-1 2:-0.746158 3:-0.639328 4:-0.241055 5:-0.449556 6:-0.447924 7:-0.464457 8:-0.54369 9:-0.364404 10:-1 11:-1 12:-0.315464 13:-0.784948 14:-1 
1 1 0 1:-1 2:-0.756063 3:-0.728587 4:-0.322502 5:-0.461323 6:-0.412619 7:-0.432268 8:-0.561724 9:-0.385868 10:-1 11:-0.446018 12:-0.0937165 13:-0.761142 14:-1 
0 1 0 1:-1 2:-0.770603 3:-1 4:-0.320013 5:-0.469067 6:-0.689411 7:-0.420404 8:-0.569539 9:-0.462956 10:-1 11:-0.466373 12:-0.0802429 13:-0.699508 14:-1 
1 1 0 1:-1 2:-0.625958 3:-0.680559 4:-0.452975 5:-0.462788 6:-0.541175 7:-0.415213 8:-0.583841 9:-0.410433 10:-1 11:-1 12:-0.0833206 13:-0.611516 14:-1 
1 1 0 1:-0.760436 2:-0.524772 3:-0.725408 4:-0.522964 5:-0.406785 6:-0.39277 7:-0.378473 8:-0.437447 9:-0.345956 10:-1 11:-1 12:-0.376412 13:-0.726075 14:-1 
1 1 0 1:-1 2:-0.722807 3:-1 4:-1 5:-0.520166 6:-0.548533 7:-0.478201 8:-0.578994 9:-0.345338 10:-1 11:-1 12:-0.113004 13:-0.686667 14:-1 
1 1 0 1:-1 2:-1 3:-0.696173 4:-1 5:-0.556509 6:-0.650066 7:-0.496557 8:-0.602756 9:-0.404583 10:-0.465216 11:-1 12:-0.229128 13:-0.450504 14:-1 
1 1 0 1:-1 2:-1 3:-0.718274 4:-0.596188 5:-0.456567 6:-1 7:-0.374281 8:-0.556851 9:-0.314293 10:-1 11:-0.522945 12:-0.132452 13:-0.359268 14:-1 
1 1 0 1:-1 2:-1 3:-0.754262 4:-0.665826 5:-0.474928 6:-0.690081 7:-0.421079 8:-0.634509 9:-0.198373 10:-1 11:-0.492993 12:4.17787e-05 13:-0.385332 14:-1 
1 0.1752734249315742 0 1:-1 2:-1 3:-1 4:-0.538598 5:-0.506579 6:-0.398443 7:-0.449948 8:-0.615454 9:-0.344473 10:-1 11:-0.494679 12:-0.0493267 13:-0.664992 14:-1 
1 1 0 1:-1 2:-1 3:-0.719662 4:-0.518902 5:-0.471628 6:-0.494782 7:-0.405055 8:-0.547735 9:-0.46239 10:-1 11:-1 12:-0.484531 13:-0.628218 14:-1 
0 1 0 1:-1 2:-1 3:-0.767646 4:-0.464464 5:-0.479558 6:-0.42019 7:-0.446966 8:-0.487265 9:-0.346265 10:-1 11:-1 12:-0.329861 13:-0.46126 14:-1 
0 1 0 1:-1 2:-1 3:-1 4:-0.363456 5:-0.51806 6:-0.543534 7:-0.490208 8:-0.560372 9:-0.475941 10:-1 11:-1 12:-0.574545 13:-0.429188 14:-1 
0 0.9609300731392095 0 1:-1 2:-1 3:-1 4:-0.632089 5:-0.601593 6:-1 7:-0.600533 8:-0.598828 9:-0.647619 10:-1 11:-1 12:-0.112392 13:-0.39418 14:-1 
0 1 0 1:-1 2:-1 3:-1 4:-0.512874 5:-0.592724 6:-0.601713 7:-0.57199 8:-0.58226 9:-1 10:-1 11:-1 12:-0.37132 13:-0.32128 14:-1 
0 1 0 1:-1 2:-1 3:-1 4:-0.442815 5:-0.523886 6:-0.673494 7:-0.455509 8:-0.558505 9:-0.532597 10:-1 11:-1 12:-0.408232 13:-0.524376 14:-1 
0 1 0 1:-1 2:-1 3:-1 4:-0.334313 5:-0.607464 6:-0.486488 7:-0.589886 8:-0.586201 9:-1 10:-1 11:-1 12:-0.566081 13:-0.720334 14:-1 
1 1 0 1:-1 2:-1 3:-0.751783 4:-0.190101 5:-0.532928 6:-0.464677 7:-0.530507 8:-0.554086 9:-0.491154 10:-1 11:-1 12:-0.351288 13:-0.518872 14:-1 
0 1 0 1:-1 2:-1 3:-1 4:-0.174889 5:-0.527827 6:-0.686456 7:-0.518307 8:-0.613825 9:-1 10:-1 11:-1 12:-1 13:-0.676526 14:-1 
0 1 0 1:-1 2:-1 3:-1 4:-0.358194 5:-0.549734 6:-0.574011 7:-0.584645 8:-0.581203 9:-1 10:-1 11:-1 12:-0.635295 13:-0.470336 14:-1 
0 1 0 1:-1 2:-1 3:-1 4:-0.345243 5:-0.544044 6:-0.643635 7:-0.547788 8:-0.511316 9:-1 10:-1 11:-1 12:-0.413735 13:-0.329008 14:-1 
0 0.9506982459166597 0 1:-1 2:-1 3:-1 4:-0.258147 5:-0.500866 6:-0.483862 7:-0.52084 8:-0.538812 9:-0.667645 10:-1 11:-1 12:-0.403639 13:-0.462892 14:-1 
0 1 0 1:-1 2:-1 3:-1 4:-0.304652 5:-0.617642 6:-0.313397 7:-0.629962 8:-0.629794 9:-1 10:-1 11:-1 12:-0.512454 13:-1 14:-1 
1 0 0 1:-1 2:-1 3:-1 4:-0.284394 5:-1 6:-0.547911 7:-1 8:-0.612926 9:-1 10:-1 11:-1 12:-0.42017 13:-1 14:-1 
1 0 0 1:-1 2:-1 3:-1 4:-0.159208 5:-0.632851 6:-1 7:-1 8:-0.660129 9:-1 10:-1 11:-1 12:-0.510191 13:-0.769129 14:-1 
1 1 0 1:-1 2:-1 3:-1 4:-0.268067 5:-1 6:-0.593927 7:-1 8:-0.682055 9:-1 10:-1 11:-1 12:-0.363699 13:-1 14:-1 
1 0 0 1:-1 2:-1 3:-1 4:-0.357935 5:-1 6:-0.502946 7:-1 8:-0.641225 9:-1 10:-1 11:-1 12:-0.612428 13:-1 14:-1 
1 0 0 1:-1 2:-1 3:-1 4:-0.432028 5:-1 6:-0.34749 7:-1 8:-0.622301 9:-1 10:-1 11:-1 12:-1 13:-1 14:-1 
1 0 0 1:-1 2:-1 3:-1 4:-0.405004 5:-1 6:-0.376854 7:-1 8:-0.616556 9:-1 10:-1 11:-1 12:-0.640165 13:-1 14:-1 
1 0 0 1:-1 2:-1 3:-1 4:-0.371792 5:-1 6:-0.668429 7:-1 8:-0.594922 9:-1 10:-1 11:-1 12:-0.633153 13:-1 14:-1 
1 0 0 1:-1 2:-1 3:-1 4:-0.37462 5:-1 6:-0.345252 7:-1 8:-0.717105 9:-1 10:-1 11:-1 12:-1 13:-1 14:-1 
1 1 0 1:-1 2:-1 3:-1 4:-0.405781 5:-1 6:-0.463351 7:-1 8:-0.753599 9:-1 10:-1 11:-1 12:-0.494844 13:-0.757847 14:-1 
1 1 0 1:-1 2:-1 3:-1 4:-0.366882 5:-1 6:-0.610954 7:-1 8:-0.716741 9:-1 10:-1 11:-1 12:-0.412619 13:-1 14:-1 
1 0.2324925095952799 0 1:-1 2:-1 3:-1 4:-0.421476 5:-1 6:-0.422724 7:-1 8:-0.672669 9:-1 10:-1 11:-1 12:-1 13:-0.719584 14:-1 
1 0 1 1:-1 2:-1 3:-1 4:-0.38842 5:-1 6:-1 7:-1 8:-0.615802 9:-1 10:-1 11:-1 12:-0.460661 13:-1 14:-1 
1 1 0 1:-1 2:-1 3:-1 4:-0.31175 5:-1 6:-0.489566 7:-1 8:-0.719632 9:-1 10:-1 11:-1 12:-0.330107 13:-1 14:-1 
1 1 0 1:-1 2:-1 3:-1 4:-0.332495 5:-1 6:-0.508125 7:-1 8:-0.690319 9:-1 10:-1 11:-1 12:-0.436557 13:-1 14:-1 
1 0 0 1:-1 2:-1 3:-1 4:-0.348601 5:-1 6:-1 7:-0.66569 8:-0.609929 9:-1 10:-1 11:-1 12:-0.386698 13:-1 14:-1 
1 1 0 1:-1 2:-1 3:-1 4:-0.356789 5:-1 6:-0.490256 7:-0.671267 8:-0.626187 9:-1 10:-1 11:-1 12:-0.251013 13:-1 14:-1 
1 0 0 1:-1 2:-1 3:-1 4:-0.363499 5:-1 6:-0.586305 7:-1 8:-0.722423 9:-0.678247 10:-1 11:-1 12:-0.23426 13:-1 14:-1 
1 0 0 1:-1 2:-1 3:-1 4:-1 5:-0.319005 6:-0.683242 7:0.0372474 8:-0.246174 9:-0.139041 10:-1 11:-0.488188 12:-0.312402 13:-1 14:-1 
1 0 0 1:-1 2:-0.714131 3:-1 4:-1 5:-0.409996 6:-0.537947 7:-0.132384 8:-0.291694 9:-0.236853 10:-1 11:-1 12:-0.519321 13:-1 14:-1 
1 0 0 1:-1 2:-1 3:-0.634456 4:-1 5:-0.443532 6:-0.280523 7:-0.18952 8:-0.181346 9:-0.316654 10:-1 11:-1 12:-0.251508 13:-0.687816 14:-1 
1 1 0 1:-1 2:-0.685338 3:-1 4:-1 5:-0.459683 6:-0.436392 7:-0.22802 8:-0.243315 9:-0.253293 10:-1 11:-1 12:-0.0379629 13:-0.631612 14:-1 
0 1 0 1:-1 2:-0.693843 3:-1 4:-1 5:-0.457801 6:-0.651975 7:-0.219139 8:-0.170997 9:-0.256902 10:-1 11:-1 12:-0.50049 13:-0.31954 14:-1 
0 1 0 1:-1 2:-1 3:-1 4:-1 5:-0.458518 6:-0.640037 7:-0.179468 8:-0.253949 9:-0.290826 10:-1 11:-1 12:-0.363962 13:-0.360504 14:-1 
1 0 0 1:-1 2:-1 3:-1 4:-1 5:-0.433807 6:-0.330863 7:-0.15164 8:-0.227363 9:-0.14584 10:-1 11:-1 12:-0.119111 13:-0.577604 14:-1 
0 1 0 1:-1 2:-1 3:-1 4:-1 5:-0.424662 6:-0.379719 7:-0.172143 8:-0.166073 9:-0.234003 10:-1 11:-1 12:-0.201561 13:-0.371332 14:-1 
1 1 0 1:-1 2:-1 3:-1 4:-1 5:-0.428385 6:-0.499243 7:-0.156745 8:-0.232621 9:-0.296988 10:-1 11:-1 12:-0.270774 13:-0.435796 14:-1 
0 1 0 1:-1 2:-1 3:-1 4:-1 5:-0.398359 6:-0.561972 7:-0.135117 8:-0.154901 9:-0.39531 10:-1 11:-1 12:-0.367248 13:-0.305888 14:-1 
1 0 0 1:-1 2:-0.7537 3:-1 4:-1 5:-0.357694 6:-1 7:-0.0753489 8:-0.245274 9:-0.343113 10:-1 11:-1 12:-0.136595 13:-0.696822 14:-1 
1 0 0 1:-1 2:-0.639973 3:-1 4:-1 5:-0.237315 6:-0.396822 7:0.10059 8:0.0520604 9:-0.271766 10:-1 11:-1 12:-0.300702 13:-0.542928 14:-1 
1 1 0 1:-1 2:-1 3:-1 4:-1 5:-0.244786 6:-0.496534 7:0.0510444 8:0.0568843 9:-0.257539 10:-1 11:-1 12:-1 13:-0.165732 14:-1 
1 1 0 1:-1 2:-1 3:-1 4:-1 5:-0.228206 6:-0.563797 7:0.080454 8:-0.0239498 9:-0.0673296 10:-1 11:-1 12:-0.64063 13:-0.371372 14:-1 
0 1 0 1:-1 2:-1 3:-1 4:-1 5:-0.193218 6:-0.674899 7:0.0692506 8:0.0762659 9:0.0270703 10:-1 11:-1 12:-1 13:-0.153268 14:-1 
1 1 0 1:-1 2:-1 3:-1 4:-1 5:-0.169533 6:-0.69801 7:0.131271 8:0.00540086 9:0.162434 10:-1 11:-1 12:-0.326181 13:-0.279668 14:-1 
1 1 0 1:-1 2:-1 3:-1 4:-1 5:-0.149308 6:-0.494325 7:0.137432 8:0.0812798 9:0.0263966 10:-1 11:-1 12:-1 13:-0.358164 14:-1 
1 1 0 1:-1 2:-1 3:-1 4:-1 5:-0.131112 6:-0.379351 7:0.137799 8:0.132288 9:-0.0103769 10:-1 11:-1 12:-0.281672 13:-0.158424 14:-1 
1 0 0 1:-1 2:-0.728019 3:-1 4:-1 5:-0.120436 6:-0.639692 7:0.217823 8:0.123541 9:-0.00505559 10:-1 11:-1 12:-0.467991 13:-0.568908 14:-1 
1 0 0 1:-1 2:-0.664456 3:-1 4:-1 5:-0.0336259 6:-0.540299 7:0.234574 8:0.192872 9:-0.0804939 10:-1 11:-1 12:-0.330505 13:-0.373484 14:-1 
1 0 0 1:-1 2:-0.671057 3:-1 4:-0.660244 5:0.135006 6:-0.478871 7:0.403174 8:0.339435 9:0.0293509 10:-1 11:-1 12:-0.580294 13:-0.659167 14:-1 
0.5125545361375833 0 0 1:-1 2:-1 3:-1 4:-1 5:0.149948 6:-0.435263 7:0.429876 8:0.368306 9:-0.0188627 10:-1 11:-1 12:-0.648035 13:-0.497524 14:-1 
1 0.1843721844069191 0 1:-1 2:-1 3:-1 4:-1 5:0.0862868 6:-0.325121 7:0.359879 8:0.298649 9:0.0486833 10:-1 11:-1 12:-0.638137 13:-0.424348 14:-1 
1 0 0 1:-1 2:-0.718462 3:-1 4:-1 5:0.104035 6:-0.547816 7:0.336182 8:0.283263 9:0.179492 10:-1 11:-1 12:-0.374968 13:-0.530092 14:-1 
1 0 0 1:-1 2:-0.585122 3:-1 4:-1 5:0.150312 6:-0.186393 7:0.439985 8:0.337199 9:0.172255 10:-1 11:-1 12:-0.510766 13:-0.626852 14:-1 
1 0 0 1:-1 2:-0.758556 3:-1 4:-1 5:0.134297 6:-0.394832 7:0.344191 8:0.36908 9:0.366524 10:-1 11:-1 12:-0.580644 13:-0.2817 14:-1 
1 0 0 1:-1 2:-0.605203 3:-1 4:-1 5:0.168095 6:-0.424795 7:0.462847 8:0.419459 9:0.108819 10:-1 11:-1 12:-1 13:-0.579888 14:-1 
1 0 0 1:-1 2:-0.759289 3:-1 4:-1 5:0.202478 6:-0.548059 7:0.454832 8:0.388687 9:0.0419466 10:-1 11:-1 12:-0.555408 13:-0.63726 14:-1 
1 0 0 1:-1 2:-0.73791 3:-1 4:-1 5:0.198591 6:-0.466528 7:0.484647 8:0.471051 9:0.194875 10:-1 11:-1 12:-0.465397 13:-0.494916 14:-1 
1 0 0 1:-1 2:-0.682628 3:-1 4:-1 5:0.165626 6:-0.484403 7:0.388631 8:0.380777 9:0.303589 10:-1 11:-1 12:-0.513621 13:-0.326128 14:-1 
1 0 0 1:-1 2:-0.623986 3:-1 4:-1 5:0.143997 6:-0.337219 7:0.384747 8:0.344376 9:0.112268 10:-1 11:-1 12:-0.392506 13:-1 14:-1 
1 0 0 1:-1 2:-0.771582 3:-1 4:-1 5:0.136182 6:-0.502849 7:0.416067 8:0.371564 9:-0.0472247 10:-1 11:-1 12:-1 13:-0.46286 14:-1 
0.7588458125840319 0 0 1:-1 2:-0.732794 3:-1 4:-1 5:0.0984013 6:-0.565025 7:0.359569 8:0.270991 9:-0.0215635 10:-1 11:-1 12:-0.573702 13:-1 14:-1 
1 0 0 1:-1 2:-0.770253 3:-1 4:-1 5:0.105212 6:-0.38499 7:0.403997 8:0.38156 9:0.114066 10:-1 11:-1 12:-1 13:-0.44062 14:-1 
1 0 0 1:-1 2:-0.700652 3:-1 4:-1 5:0.116122 6:-0.627925 7:0.388188 8:0.351775 9:0.258762 10:-1 11:-1 12:-0.600695 13:-0.476736 14:-1 
1 0 0 1:-1 2:-0.70304 3:-1 4:-1 5:0.106698 6:-0.549811 7:0.42734 8:0.2873 9:0.283447 10:-1 11:-1 12:-0.325782 13:-1 14:-1 
1 0 0 1:-1 2:-0.645592 3:-1 4:-1 5:0.0674032 6:-0.35957 7:0.382084 8:0.293884 9:-0.0128924 10:-1 11:-1 12:-0.58028 13:-0.407556 14:-1 
1 0 0 1:-1 2:-1 3:-1 4:-1 5:0.0119356 6:-0.245652 7:0.310303 8:0.2487 9:-0.0935532 10:-1 11:-1 12:-1 13:-0.566232 14:-1 
1 0 0 1:-1 2:-1 3:-1 4:-1 5:-0.0311219 6:-0.478252 7:0.258391 8:0.15424 9:-0.0319096 10:-1 11:-1 12:-0.571655 13:-0.532348 14:-1 
1 0 0 1:-1 2:-0.664582 3:-1 4:-1 5:0.028893 6:-0.449636 7:0.318299 8:0.240346 9:0.056347 10:-1 11:-1 12:-0.643317 13:-0.67679 14:-1 
1 0 0 1:-1 2:-1 3:-1 4:-1 5:0.0591068 6:-0.534672 7:0.408596 8:0.26156 9:-0.0655991 10:-1 11:-1 12:-1 13:-0.732032 14:-1 
1 0 0 1:-1 2:-0.697082 3:-1 4:-1 5:0.0799992 6:-1 7:0.401403 8:0.379795 9:0.0435968 10:-1 11:-1 12:-0.497693 13:-0.184644 14:-1 
1 0.06759778665634876 0 1:-1 2:-0.569929 3:-1 4:-1 5:0.10579 6:-0.558108 7:0.41205 8:0.431356 9:-0.0603025 10:-1 11:-1 12:-1 13:-0.159076 14:-1 
1 0 0 1:-1 2:-0.44377 3:-1 4:-0.488621 5:0.18907 6:-1 7:0.430604 8:0.35673 9:-0.104999 10:-1 11:-1 12:-1 13:-0.033008 14:-1 
1 0 0 1:-1 2:-0.567751 3:-1 4:-0.638834 5:0.0432569 6:-0.634637 7:0.371677 8:0.365595 9:0.00124845 10:-1 11:-1 12:-0.496694 13:-0.441624 14:-1 
1 1 1 1:-1 2:-1 3:-1 4:-1 5:-1 6:-1 7:-1 8:-1 9:-1 10:-1 11:-1 12:-1 13:-1 14:-1 
1 1 1 1:-1 2:-1 3:-1 4:-1 5:-1 6:-1 7:-1 8:-1 9:-1 10:-1 11:-1 12:-1 13:-1 14:-1 
1 1 1 1:-1 2:-1 3:-1 4:-1 5:-1 6:-1 7:-1 8:-1 9:-1 10:-1 11:-1 12:-1 13:-1 14:-1 
1 1 1 1:-1 2:-1 3:-1 4:-1 5:-1 6:-1 7:-1 8:-1 9:-1 10:-1 11:-1 12:-1 13:-1 14:-1 
1 1 1 1:-1 2:-1 3:-1 4:-1 5:-1 6:-1 7:-1 8:-1 9:-1 10:-1 11:-1 12:-1 13:-1 14:-1 
1 0 0 1:-0.691446 2:-0.53613 3:-1 4:-0.460276 5:0.453778 6:-1 7:0.69405 8:0.748533 9:-0.0395795 10:-0.549652 11:-1 12:-1 13:0.027728 14:-1 
1 0 0 1:-0.7918 2:-0.584122 3:-1 4:-1 5:0.30597 6:-1 7:0.557162 8:0.681067 9:-0.0618414 10:-1 11:-1 12:-1 13:0.441256 14:-1 
1 0 0 1:-0.799382 2:-0.571835 3:-1 4:-1 5:0.314328 6:-0.672533 7:0.55181 8:0.618967 9:-0.0448823 10:-0.531045 11:-1 12:-1 13:-0.130264 14:-1 
1 0 0 1:-1 2:-0.658597 3:-1 4:-1 5:0.288084 6:-1 7:0.538753 8:0.695543 9:-0.199195 10:-1 11:-1 12:-1 13:0.23988 14:-1 
1 1 1 1:-1 2:-1 3:-1 4:-1 5:-1 6:-1 7:-1 8:-1 9:-1 10:-1 11:-1 12:-1 13:-1 14:-1 
1 1 1 1:-1 2:-1 3:-1 4:-1 5:-1 6:-1 7:-1 8:-1 9:-1 10:-1 11:-1 12:-1 13:-1 14:-1 
1 1 1 1:-1 2:-1 3:-1 4:-1 5:-1 6:-1 7:-1 8:-1 9:-1 10:-1 11:-1 12:-1 13:-1 14:-1 
1 1 1 1:-1 2:-1 3:-1 4:-1 5:-1 6:-1 7:-1 8:-1 9:-1 10:-1 11:-1 12:-1 13:-1 14:-1 
1 1 1 1:-1 2:-1 3:-1 4:-1 5:-1 6:-1 7:-1 8:-1 9:-1 10:-1 11:-1 12:-1 13:-1 14:-1 
1 1 1 1:-1 2:-1 3:-1 4:-1 5:-1 6:-1 7:-1 8:-1 9:-1 10:-1 11:-1 12:-1 13:-1 14:-1 
1 1 1 1:-1 2:-1 3:-1 4:-1 5:-1 6:-1 7:-1 8:-1 9:-1 10:-1 11:-1 12:-1 13:-1 14:-1 
1 1 1 1:-1 2:-1 3:-1 4:-1 5:-1 6:-1 7:-1 8:-1 9:-1 10:-1 11:-1 12:-1 13:-1 14:-1 
1 1 1 1:-1 2:-1 3:-1 4:-1 5:-1 6:-1 7:-1 8:-1 9:-1 10:-1 11:-1 12:-1 13:-1 14:-1 
1 1 1 1:-1 2:-1 3:-1 4:-1 5:-1 6:-1 7:-1 8:-1 9:-1 10:-1 11:-1 12:-1 13:-1 14:-1 
1 1 1 1:-1 2:-1 3:-1 4:-1 5:-1 6:-1 7:-1 8:-1 9:-1 10:-1 11:-1 12:-1 13:-1 14:-1 
1 1 1 1:-1 2:-1 3:-1 4:-1 5:-1 6:-1 7:-1 8:-1 9:-1 10:-1 11:-1 12:-1 13:-1 14:-1 
1 1 1 1:-1 2:-1 3:-1 4:-1 5:-1 6:-1 7:-1 8:-1 9:-1 10:-1 11:-1 12:-1 13:-1 14:-1 
1 1 1 1:-1 2:-1 3:-1 4:-1 5:-1 6:-1 7:-1 8:-1 9:-1 10:-1 11:-1 12:-1 13:-1 14:-1 
1 1 1 1:-1 2:-1 3:-1 4:-1 5:-1 6:-1 7:-1 8:-1 9:-1 10:-1 11:-1 12:-1 13:-1 14:-1 
1 1 1 1:-1 2:-1 3:-1 4:-1 5:-1 6:-1 7:-1 8:-1 9:-1 10:-1 11:-1 12:-1 13:-1 14:-1 
1 1 1 1:-1 2:-1 3:-1 4:-1 5:-1 6:-1 7:-1 8:-1 9:-1 10:-1 11:-1 12:-1 13:-1 14:-1 
1 1 1 1:-1 2:-1 3:-1 4:-1 5:-1 6:-1 7:-1 8:-1 9:-1 10:-1 11:-1 12:-1 13:-1 14:-1 
1 1 1 1:-1 2:-1 3:-1 4:-1 5:-1 6:-1 7:-1 8:-1 9:-1 10:-1 11:-1 12:-1 13:-1 14:-1 
1 1 1 1:-1 2:-1 3:-1 4:-1 5:-1 6:-1 7:-1 8:-1 9:-1 10:-1 11:-1 12:-1 13:-1 14:-1 
1 1 1 1:-1 2:-1 3:-1 4:-1 5:-1 6:-1 7:-1 8:-1 9:-1 10:-1 11:-1 12:-1 13:-1 14:-1 
1 1 1 1:-1 2:-1 3:-1 4:-1 5:-1 6:-1 7:-1 8:-1 9:-1 10:-1 11:-1 12:-1 13:-1 14:-1 
0 1 0 1:-0.286992 2:-1 3:-1 4:-1 5:-1 6:-1 7:-0.630506 8:-0.0293755 9:0.0847028 10:-1 11:0.0843658 12:-1 13:-0.459084 14:-1 
0 1 0 1:-0.472608 2:-0.7222 3:-1 4:-1 5:-1 6:-0.622291 7:-0.415496 8:0.0325522 9:0.0528489 10:-1 11:-0.0659676 12:-1 13:-0.279832 14:-1 
0 1 0 1:-0.526536 2:-0.703108 3:-1 4:-1 5:0.200256 6:-1 7:0.447222 8:0.482242 9:0.399472 10:-1 11:-0.236559 12:-1 13:-0.113672 14:-1 
1 0 0 1:-0.711615 2:-0.648926 3:-1 4:-1 5:0.394568 6:-1 7:0.625451 8:0.583105 9:0.374411 10:-1 11:-0.530171 12:-0.384376 13:0.35718 14:-1 
0.985399948315119 0 0 1:-0.758335 2:-0.766669 3:-1 4:-1 5:0.365785 6:-1 7:0.592619 8:0.576643 9:0.0903332 10:-1 11:-0.503893 12:-0.433938 13:0.014136 14:-1 
1 0 0 1:-1 2:-0.723451 3:-1 4:-1 5:0.399748 6:-1 7:0.650249 8:0.527168 9:-0.0430714 10:-1 11:-0.326488 12:-0.54185 13:0.122756 14:-1 
1 0 0 1:-1 2:-0.669348 3:-1 4:-0.567315 5:0.342939 6:-1 7:0.642525 8:0.563243 9:0.317081 10:-1 11:-1 12:-0.366439 13:0.280624 14:-1 
1 0 0 1:-1 2:-0.581125 3:-1 4:-1 5:0.315876 6:-1 7:0.583794 8:0.579421 9:0.264881 10:-1 11:-1 12:-0.516029 13:-0.030844 14:-1 
1 1 1 1:-1 2:-1 3:-1 4:-1 5:-1 6:-1 7:-1 8:-1 9:-1 10:-1 11:-1 12:-1 13:-1 14:-1 
1 1 1 1:-1 2:-1 3:-1 4:-1 5:-1 6:-1 7:-1 8:-1 9:-1 10:-1 11:-1 12:-1 13:-1 14:-1 
1 1 1 1:-1 2:-1 3:-1 4:-1 5:-1 6:-1 7:-1 8:-1 9:-1 10:-1 11:-1 12:-1 13:-1 14:-1 
1 1 1 1:-1 2:-1 3:-1 4:-1 5:-1 6:-1 7:-1 8:-1 9:-1 10:-1 11:-1 12:-1 13:-1 14:-1 
1 1 1 1:-1 2:-1 3:-1 4:-1 5:-1 6:-1 7:-1 8:-1 9:-1 10:-1 11:-1 12:-1 13:-1 14:-1 
1 1 1 1:-1 2:-1 3:-1 4:-1 5:-1 6:-1 7:-1 8:-1 9:-1 10:-1 11:-1 12:-1 13:-1 14:-1 
1 1 1 1:-1 2:-1 3:-1 4:-1 5:-1 6:-1 7:-1 8:-1 9:-1 10:-1 11:-1 12:-1 13:-1 14:-1 
1 1 1 1:-1 2:-1 3:-1 4:-1 5:-1 6:-1 7:-1 8:-1 9:-1 10:-1 11:-1 12:-1 13:-1 14:-1 
1 1 1 1:-1 2:-1 3:-1 4:-1 5:-1 6:-1 7:-1 8:-1 9:-1 10:-1 11:-1 12:-1 13:-1 14:-1 
1 1 1 1:-1 2:-1 3:-1 4:-1 5:-1 6:-1 7:-1 8:-1 9:-1 10:-1 11:-1 12:-1 13:-1 14:-1 
1 1 0 1:-0.475948 2:-1 3:-1 4:-0.591223 5:-1 6:-0.65163 7:-1 8:-0.715147 9:-0.61729 10:-0.476596 11:-0.387524 12:-0.436841 13:-1 14:-1 
1 1 0 1:-0.374992 2:-1 3:-0.745948 4:-0.398876 5:-1 6:-0.487643 7:-1 8:-0.69227 9:-0.51335 10:-0.523065 11:-0.300749 12:-0.474963 13:-1 14:-1 
1 0.6374918329354826 0.1885157015504499 1:-0.400664 2:-1 3:-1 4:-1 5:-1 6:-1 7:-1 8:-0.667084 9:-1 10:-1 11:-0.313324 12:0.176027 13:-1 14:-1 
0 1 0 1:-0.287996 2:-0.752726 3:-1 4:-1 5:-1 6:-0.609645 7:-1 8:-0.630858 9:-0.416165 10:-1 11:-0.380794 12:-0.0387845 13:-1 14:-1 
0 1 0 1:-0.30502 2:-0.369793 3:-1 4:-1 5:-1 6:-1 7:-1 8:-0.440483 9:-1 10:-1 11:-0.0560302 12:0.18205 13:-1 14:-1 
0 1 0 1:-0.506524 2:-0.592712 3:-1 4:-1 5:-0.584606 6:-0.577124 7:-1 8:-0.409558 9:-0.493636 10:-1 11:-0.164983 12:-0.0861824 13:-1 14:-1 
0 0.1765222478362212 0 1:-0.415996 2:-0.601094 3:-1 4:-1 5:-0.554686 6:-1 7:-0.60841 8:-0.305337 9:-1 10:-1 11:0.0208314 12:-0.248332 13:-1 14:-1 
0 1 0 1:-0.471528 2:-0.605558 3:-1 4:-0.621235 5:-0.568302 6:-1 7:-0.649701 8:-0.347797 9:-1 10:-1 11:-0.346172 12:-0.371878 13:-1 14:-1 
1 1 0 1:-1 2:-1 3:-0.618972 4:-0.477763 5:-1 6:-0.23853 7:-1 8:-0.627803 9:-1 10:-0.557748 11:-1 12:-0.565025 13:-0.795932 14:-1 
1 0 0 1:-1 2:-1 3:-0.628288 4:-1 5:-1 6:-0.181116 7:-1 8:-0.585613 9:-1 10:-0.561939 11:-1 12:-0.626046 13:-0.796684 14:-1 
1 0 0 1:-1 2:-1 3:-0.539418 4:-1 5:-1 6:-0.178227 7:-1 8:-0.599654 9:-1 10:-1 11:-1 12:-1 13:-0.791065 14:-1 
1 0 0 1:-1 2:-1 3:-0.672841 4:-1 5:-1 6:-0.300913 7:-1 8:-0.568103 9:-1 10:-1 11:-1 12:-0.524709 13:-1 14:-1 
1 0 0 1:-1 2:-1 3:-0.639466 4:-1 5:-1 6:-0.216336 7:-1 8:-0.643024 9:-0.546168 10:-1 11:-1 12:-0.589842 13:-1 14:-1 
1 0 0 1:-1 2:-1 3:-1 4:-1 5:-1 6:-0.265373 7:-1 8:-0.71505 9:-0.562971 10:-1 11:-1 12:-0.587285 13:-0.679125 14:-1 
1 0 0 1:-1 2:-1 3:-1 4:-1 5:-1 6:-0.298917 7:-1 8:-0.724115 9:-0.553235 10:-1 11:-1 12:-0.618704 13:-0.643836 14:-1 
1 0 0 1:-1 2:-1 3:-1 4:-1 5:-1 6:-0.254084 7:-1 8:-0.71662 9:-0.680793 10:-1 11:-1 12:-0.518391 13:-0.56862 14:-1 
1 0 0 1:-1 2:-1 3:-1 4:-1 5:-1 6:-0.0735977 7:-1 8:-0.667283 9:-0.624863 10:-1 11:-1 12:-1 13:-0.615145 14:-1 
1 0 0 1:-1 2:-1 3:-1 4:-1 5:-1 6:-0.21194 7:-1 8:-0.734923 9:-1 10:-1 11:-1 12:-1 13:-0.544696 14:-1 
0.74521203523012 0 0 1:-1 2:-1 3:-1 4:-1 5:-1 6:-0.468074 7:-1 8:-0.644148 9:-1 10:-1 11:-1 12:-1 13:-0.726294 14:-1 
1 0 0 1:-1 2:-1 3:-1 4:-1 5:-1 6:-0.469485 7:-1 8:-0.688186 9:-1 10:-1 11:-1 12:-1 13:-0.625814 14:-1 
1 0 0 1:-1 2:-1 3:-1 4:-1 5:-1 6:-0.633538 7:-1 8:-0.685509 9:-1 10:-1 11:-1 12:-1 13:-0.663801 14:-1 
1 0 0 1:-1 2:-1 3:-1 4:-1 5:-1 6:-0.586698 7:-1 8:-0.718432 9:-1 10:-1 11:-1 12:-1 13:-1 14:-1 
1 0 0 1:-1 2:-1 3:-1 4:-1 5:-1 6:-0.474675 7:-1 8:-0.703853 9:-0.657028 10:-1 11:-1 12:-1 13:-0.66156 14:-1 
1 1 1 1:-1 2:-1 3:-1 4:-1 5:-1 6:-1 7:-1 8:-1 9:-1 10:-1 11:-1 12:-1 13:-0.702612 14:-1 
1 1 1 1:-1 2:-1 3:-1 4:-1 5:-1 6:-1 7:-1 8:-1 9:-1 10:-1 11:-1 12:-1 13:-0.693098 14:-1 
1 1 1 1:-1 2:-1 3:-1 4:-1 5:-1 6:-1 7:-1 8:-1 9:-1 10:-1 11:-1 12:-1 13:-0.663088 14:-1 
1 1 1 1:-1 2:-1 3:-0.75196 4:-1 5:-1 6:-1 7:-1 8:-1 9:-1 10:-1 11:-1 12:-1 13:-0.714704 14:-1 
1 1 0.9114000421841404 1:-1 2:-1 3:-1 4:-1 5:-1 6:-1 7:-1 8:-1 9:-1 10:-1 11:-0.482083 12:-1 13:-0.735626 14:-1 
1 1 1 1:-1 2:-1 3:-1 4:-1 5:-1 6:-1 7:-1 8:-1 9:-1 10:-1 11:-1 12:-1 13:-1 14:-1 
1 1 1 1:-1 2:-1 3:-1 4:-1 5:-1 6:-0.563639 7:-1 8:-1 9:-1 10:-1 11:-1 12:-1 13:-0.750066 14:-1 
1 0 0 1:-1 2:-1 3:-1 4:-1 5:-1 6:-0.548217 7:-1 8:-0.765986 9:-0.661415 10:-1 11:-1 12:-1 13:-0.712385 14:-1 
